347 100
</s> 0.004003 0.004419 -0.003830 -0.003278 0.001367 0.003021 0.000941 0.000211 -0.003604 0.002218 -0.004356 0.001250 -0.000751 -0.000957 -0.003316 -0.001882 0.002579 0.003025 0.002969 0.001597 0.001545 -0.003803 -0.004096 0.004970 0.003801 0.003090 -0.000604 0.004016 -0.000495 0.000735 -0.000149 -0.002983 0.001312 -0.001337 -0.003825 0.004754 0.004379 -0.001095 -0.000226 0.000509 -0.003638 -0.004007 0.004555 0.000063 -0.002582 -0.003042 -0.003076 0.001697 0.000201 0.001331 -0.004214 -0.003808 -0.000130 0.001144 0.002550 -0.003170 0.004080 0.000927 0.001120 -0.000608 0.002986 -0.002288 -0.002097 0.002158 -0.000753 0.001031 0.001805 -0.004089 -0.001983 0.002914 0.004232 0.003932 -0.003047 -0.002108 -0.000909 0.002001 -0.003788 0.002998 0.002788 -0.001599 -0.001552 -0.002238 0.004229 0.003912 -0.001180 0.004215 0.004820 0.001815 0.004983 -0.003111 -0.001532 -0.002107 -0.002907 0.002815 0.001579 0.000425 -0.002194 0.001524 0.003059 0.000194 
OZ -0.008505 -0.187301 0.202777 -0.368581 -0.130650 -0.404405 0.131707 0.163010 -0.082705 0.159935 0.214380 0.015709 -0.173765 -0.039039 0.008141 0.313237 0.006533 0.244431 0.419679 0.143178 -0.207767 0.112863 0.332839 -0.511943 -0.030948 -0.312004 0.042835 -0.009619 0.413641 0.289186 -0.096080 0.144084 -0.425254 -0.005631 -0.082130 -0.192021 0.202910 -0.028573 -0.151865 -0.209531 -0.114706 0.330821 0.056205 -0.540436 -0.057399 0.242875 -0.184881 -0.122380 -0.147178 0.168179 -0.315651 0.035592 0.060051 0.049289 -0.061331 0.318823 0.085503 -0.267533 0.046587 -0.269625 0.582075 -0.259629 0.256065 -0.103349 -0.431934 0.521084 0.331158 0.104132 0.439083 0.245971 0.052604 -0.279013 -0.145036 -0.469793 -0.008065 0.109436 -0.397213 -0.180562 -0.051922 0.013678 0.255748 -0.080404 -0.056384 -0.270464 0.159470 0.049552 0.278451 -0.191910 0.658961 0.048388 0.299448 0.616547 0.355843 0.697245 -0.116241 0.188911 0.015544 0.419286 0.180123 -0.311598 
HOURS -0.347671 -0.250829 0.277600 0.084304 -0.032410 0.076255 -0.034315 -0.305030 -0.151565 0.286353 0.218912 -0.095811 -0.004075 0.008081 -0.163939 0.228067 0.147904 0.033865 0.208074 0.320494 0.100636 0.188421 0.367808 0.094673 0.017831 -0.114663 0.264402 0.028068 0.079163 0.118984 -0.107068 -0.135652 -0.302442 0.067726 -0.037626 -0.193778 0.081031 -0.228316 -0.025584 -0.011750 -0.237724 0.300937 -0.036196 -0.027490 0.269643 0.112265 0.098339 0.385544 -0.040623 0.141697 -0.018257 -0.195627 -0.148014 0.250037 0.079663 -0.159077 0.083388 -0.164155 0.101075 -0.206103 0.135339 -0.113541 -0.065005 -0.130080 -0.145018 0.210434 0.584287 -0.007166 0.276829 0.325581 -0.153709 -0.009253 0.124692 -0.390167 0.009468 -0.054255 -0.487773 -0.096574 -0.230596 -0.401371 0.293370 0.345319 -0.107950 -0.082403 0.295929 0.652784 0.219673 0.069501 0.303421 -0.396000 -0.007568 0.474392 -0.048310 0.124035 0.126978 0.054146 -0.294933 0.170496 -0.187142 0.228507 
EVERY -0.069130 0.186585 0.067934 0.357418 0.217298 0.312446 -0.122842 -0.454181 0.022459 0.164690 -0.095980 0.202246 -0.099984 -0.107123 -0.038088 0.233564 0.345512 -0.270049 0.303123 -0.129133 -0.093249 0.231411 -0.041704 0.028341 -0.062086 -0.118077 0.298434 0.001309 0.197111 -0.101842 -0.374264 -0.015013 -0.316939 0.293592 0.071742 0.359374 0.044567 -0.062747 0.358091 -0.113247 0.043114 0.222960 -0.437579 0.147353 0.694422 -0.006346 -0.081682 0.050566 0.231666 -0.304760 0.168623 -0.320714 -0.407159 -0.168810 -0.324900 -0.472629 0.194968 0.062916 -0.017390 -0.326595 0.028478 0.111880 0.132203 -0.028810 -0.105390 0.265724 0.259527 -0.161976 0.306845 0.274800 0.318291 0.088355 -0.192921 -0.487293 -0.246443 -0.269804 -0.232490 -0.254349 -0.332011 -0.489448 0.385375 0.290447 0.050388 -0.270410 0.164624 0.740071 0.009352 0.019363 0.108943 -0.263866 0.025994 0.308840 -0.095971 0.472275 0.400462 0.283319 -0.260806 0.155790 -0.078264 -0.106977 
DIET -0.383585 -0.200448 0.056949 0.227714 0.109099 0.178099 -0.118946 -0.048908 -0.238469 0.313988 0.283122 0.521490 -0.206809 -0.184251 0.048433 0.514185 0.180601 0.155426 0.365995 0.162786 0.021294 0.537191 0.781937 -0.112876 0.347665 -0.010818 0.052151 0.193255 0.307012 -0.118519 0.052213 -0.003463 -0.162324 0.454952 -0.330029 -0.107907 0.017926 0.134809 0.141727 -0.194167 -0.121097 0.300445 -0.389849 -0.091083 0.263684 0.158795 0.003018 0.092554 0.393437 0.013405 -0.258032 -0.259242 -0.130136 0.177732 -0.195248 -0.105077 0.483956 0.277261 0.180245 -0.492046 0.069172 -0.262355 0.255022 0.118896 -0.421650 0.087738 0.383342 -0.294076 0.432410 0.427245 -0.131258 -0.000272 -0.125372 -0.239559 -0.129841 0.007811 -0.593364 -0.044817 -0.091292 -0.445438 0.252220 0.081216 -0.050142 -0.493582 0.487128 0.695659 0.352061 -0.039010 0.531729 0.063201 0.081045 0.537672 -0.411781 0.477774 0.202399 -0.124450 -0.273784 0.564969 -0.550085 0.148443 
3 0.192419 -0.095183 0.262223 -0.232313 0.173827 -0.069096 -0.182834 -0.147734 -0.205871 0.522243 0.033097 0.296558 -0.181137 -0.011321 0.115551 0.234561 0.293183 0.028207 0.035963 0.160391 0.088166 0.063154 0.451831 -0.362936 0.010084 -0.130261 -0.003552 0.042234 0.054650 0.040839 0.034770 0.065492 -0.371111 0.137792 0.105581 -0.093425 0.221589 0.003635 0.178097 -0.117157 0.094206 0.283706 -0.396938 -0.050394 0.446556 0.274770 0.088335 -0.028115 -0.013148 0.022362 0.170572 -0.278708 -0.085723 0.016725 0.030842 -0.025611 0.534075 -0.052604 -0.041195 -0.066955 0.187093 -0.078296 -0.132786 -0.233165 -0.176822 0.307971 0.459489 -0.126195 0.152439 0.172845 0.044074 -0.012038 0.042897 -0.144979 -0.032023 -0.009781 -0.102539 0.154740 -0.251073 -0.030686 0.051439 -0.024913 0.152524 0.008068 -0.033588 0.261399 -0.022405 -0.064319 0.211275 0.101808 0.178269 0.227891 -0.113963 0.040603 -0.060654 0.131991 -0.108968 0.418219 -0.190443 0.005864 
4 0.079324 -0.110996 0.230467 -0.359439 0.156999 -0.158354 -0.128577 -0.045634 -0.149628 0.510600 0.048501 0.348461 -0.175749 -0.161220 0.213867 0.206048 0.068416 0.272653 -0.058643 0.075533 -0.017396 0.052526 0.412192 -0.412510 0.206916 0.039609 -0.130680 0.022843 0.089872 0.054068 0.232293 0.304829 -0.260284 0.305033 -0.047254 -0.048007 0.143687 0.214741 0.173400 -0.207557 0.221458 0.355816 -0.347075 -0.333699 0.248472 0.139533 -0.057809 -0.108978 0.231581 -0.037632 0.055577 -0.175438 0.071821 -0.021144 -0.089408 0.136100 0.480247 0.153365 0.056443 -0.119268 0.390463 -0.146336 0.141140 0.034294 -0.291389 0.247707 0.311809 -0.213344 0.225991 0.217870 0.136982 0.046211 -0.040011 -0.152509 -0.056439 0.179311 -0.273925 0.304015 -0.290816 0.092281 0.047343 -0.173551 0.107458 -0.002802 0.121949 -0.010996 0.029558 -0.222519 0.451020 0.373820 0.421793 0.378934 0.008926 0.300182 -0.051990 0.062301 -0.000574 0.456503 -0.131714 0.008283 
TO -0.023394 -0.047741 0.173243 0.120095 0.100718 0.092141 -0.109281 -0.225487 -0.130790 0.261396 0.073894 0.032881 -0.113794 -0.034264 -0.028317 0.252623 0.301524 -0.073777 0.327085 0.108649 -0.004118 0.200572 0.197926 -0.038515 -0.216164 -0.161300 0.216199 -0.017674 0.201826 0.136436 -0.287275 -0.042282 -0.440954 0.092493 0.006940 0.000257 0.241031 -0.186911 0.052019 -0.008834 -0.153334 0.210422 -0.242070 -0.008690 0.405156 0.214212 -0.001015 0.108460 -0.115760 0.018532 -0.010948 -0.182680 -0.372141 0.030610 0.008398 -0.239466 0.141993 -0.202918 0.076716 -0.218334 0.116909 0.042351 -0.011107 -0.184468 -0.222692 0.264589 0.325147 -0.032200 0.319582 0.167026 0.018923 -0.058574 -0.069611 -0.519021 -0.200134 -0.195129 -0.301547 -0.207220 -0.180519 -0.362241 0.344247 0.186841 0.052242 -0.186407 0.120820 0.655829 0.168314 -0.017146 0.235441 -0.317870 -0.029029 0.309359 0.066516 0.347409 0.134147 0.172081 -0.231797 0.237236 -0.060965 -0.090386 
NEOSURE 0.083854 -0.130401 0.499101 -0.380452 0.259210 -0.145602 0.036373 -0.467805 0.187840 0.491345 -0.131847 0.053343 -0.064025 0.099094 0.032595 -0.094985 0.369186 0.017723 0.324119 0.391617 -0.259125 0.105129 0.375139 -0.253890 0.133207 -0.289802 0.009061 0.002391 0.357718 0.114734 -0.105399 0.220216 -0.207200 0.080834 0.083003 0.312791 0.171110 -0.173896 -0.018488 -0.094492 -0.010243 0.226384 -0.321187 -0.311375 0.427808 0.053126 0.021707 -0.069786 0.419142 -0.154192 0.198752 -0.256124 0.020148 -0.181714 -0.343857 -0.123092 0.438810 -0.064200 -0.079378 -0.269509 0.213794 -0.156614 0.038846 -0.149737 -0.048298 0.210005 0.283902 -0.169901 0.429624 0.469019 0.296043 -0.185099 0.234314 -0.324973 0.137370 -0.291596 -0.349626 0.151139 -0.358949 -0.214887 0.051500 0.085936 0.170157 0.069420 -0.017273 0.289384 -0.000199 -0.027012 0.345400 -0.177604 0.036748 0.194071 0.169933 0.349124 0.293850 0.148144 0.090649 0.431972 -0.040983 0.192358 
2 -0.103026 -0.241505 0.327399 -0.070742 0.272230 0.044913 -0.266326 -0.383292 -0.221747 0.697059 0.126145 0.194169 -0.131848 -0.090857 -0.025247 0.315688 0.432559 0.071998 0.127060 0.232211 -0.005507 0.119233 0.519322 -0.318662 0.102160 -0.156385 0.045274 0.059563 0.012567 0.062785 0.026449 0.145307 -0.401029 0.116377 0.095487 -0.060569 0.145110 -0.008104 0.044082 -0.074665 -0.125226 0.294146 -0.259337 0.066074 0.422596 0.186468 0.127692 0.080261 -0.046432 0.128606 0.205997 -0.310349 -0.201499 0.133373 0.085534 -0.204822 0.301086 0.068076 0.023909 -0.017838 -0.028339 -0.083961 -0.025498 -0.168467 -0.066485 0.282809 0.581393 -0.119008 0.076825 0.099979 -0.030718 -0.036848 0.040601 -0.194446 -0.033908 0.035399 -0.155729 0.112801 -0.148721 -0.201660 0.083018 0.150417 -0.023193 0.017313 0.223727 0.436248 0.062725 0.056706 0.040866 -0.019098 0.132890 0.218619 -0.161045 0.042646 -0.024527 0.082319 -0.338857 0.305704 -0.279161 0.179908 
22 -0.088817 -0.167459 0.349123 -0.318907 0.260968 -0.043560 0.045235 -0.225449 0.052427 0.291667 -0.170570 0.030791 -0.054343 -0.052283 -0.032639 -0.067861 0.366014 0.166735 0.276617 0.418369 -0.233022 0.049373 0.207895 -0.222991 0.056962 -0.237986 -0.075916 0.213517 0.200174 0.084136 -0.029124 0.109739 -0.347806 0.242751 0.011910 0.325771 0.194485 0.019473 0.134385 -0.050795 -0.225548 0.192710 -0.189288 -0.280941 0.291060 0.339000 -0.075607 0.190455 0.333662 0.034627 0.230886 -0.296877 0.007156 0.029519 -0.320302 -0.002713 0.194563 0.077078 -0.244555 -0.252224 0.149383 -0.320194 0.210679 -0.174021 -0.241025 0.115531 0.365055 -0.110207 0.367145 0.390364 0.321501 -0.273163 0.221557 -0.430016 -0.108114 -0.115678 -0.514630 -0.054427 -0.432403 -0.395765 0.201066 0.195874 -0.021025 -0.063268 0.209681 0.370869 -0.143126 -0.124732 0.498238 -0.166944 0.073261 0.463858 0.243697 0.440392 0.189475 0.202837 -0.169268 0.323832 0.022238 0.249043 
6 0.195974 -0.011746 0.208739 -0.323678 0.061886 -0.171267 0.084045 0.027336 -0.028875 0.366173 -0.025499 0.275115 -0.045422 -0.153952 0.275021 0.148887 0.052294 0.171172 0.058709 0.054558 0.070531 -0.033419 0.211400 -0.403394 -0.031366 0.006864 0.018583 -0.123321 0.231170 0.167000 0.064257 0.149578 -0.307398 0.208353 -0.012481 -0.089450 0.291989 0.100861 0.207662 -0.207321 0.339052 0.424329 -0.323124 -0.400052 0.314360 0.150044 -0.134862 -0.072332 0.216818 -0.091737 0.068361 -0.278616 -0.063395 -0.195239 -0.124669 0.034567 0.421055 -0.137991 0.109442 -0.142105 0.506770 0.069252 -0.051110 0.049535 -0.426604 0.364615 0.203971 -0.129741 0.316806 0.333336 0.214838 0.062955 -0.053634 -0.372733 -0.130196 0.019397 -0.236780 0.202462 -0.423324 0.057698 0.294020 -0.149540 0.262975 0.120030 0.031722 0.053534 0.050989 -0.308491 0.382939 0.214308 0.386965 0.405574 0.202027 0.384855 -0.032665 0.179289 -0.025267 0.393423 0.137704 -0.136424 
TIMES -0.050831 0.148492 0.086611 -0.668014 -0.187787 -0.471089 0.152695 -0.016141 0.061100 0.960273 0.210206 0.471169 -0.019380 -0.436489 0.563825 0.441336 -0.145335 0.613459 -0.009042 -0.323923 -0.134296 -0.037590 0.128116 -0.734190 0.332044 0.383136 -0.130500 -0.188520 0.239192 0.441087 0.284580 0.772575 -0.282587 0.606901 0.062105 0.195355 -0.003747 0.225980 0.300641 -0.256368 0.751633 0.894570 -0.541446 -1.151538 0.511339 -0.183188 -0.300772 -0.538026 0.389938 -0.224316 0.181512 -0.189682 0.346701 -0.232803 -0.198645 0.115539 0.235940 0.202267 0.528976 -0.286065 1.214114 -0.178899 0.485601 0.591111 -0.218789 0.582808 0.405150 -0.519822 0.344951 0.153198 0.325867 0.424885 -0.339415 -0.628672 -0.075233 0.512569 -0.631384 0.606069 -0.564729 0.408129 0.424838 -0.422325 0.334561 -0.319338 0.204889 -0.547750 0.212735 -0.633658 0.945778 0.796131 1.067886 0.749495 0.508623 1.075930 -0.052858 0.015968 0.313605 0.734315 0.365660 -0.263215 
SIMILAC 0.214176 0.130707 0.426376 -0.597789 0.185321 -0.114107 -0.279301 -0.397700 0.078200 0.262815 -0.480054 -0.127307 -0.221428 0.093556 0.108121 -0.304363 0.000178 0.001021 -0.212498 0.214147 -0.583241 -0.328665 -0.318295 -0.402536 -0.066905 -0.337372 -0.203464 -0.067419 0.035185 0.043968 0.126479 0.682693 -0.510899 0.512831 0.244686 0.578082 0.308369 0.025000 0.191171 -0.225200 0.321002 0.215992 -0.173596 -0.521991 0.252537 0.113224 -0.256071 0.137090 0.039538 -0.333445 0.275067 -0.026040 0.143673 -0.283821 -0.337047 0.269737 0.133080 0.158119 -0.402643 -0.168176 0.583517 -0.245036 0.539141 -0.175794 -0.220638 0.315992 0.255388 0.038962 0.561675 0.325803 0.863685 -0.280280 0.117626 -0.453462 0.149636 0.115349 -0.387677 0.105253 -0.600654 -0.004868 0.096521 0.325706 -0.018332 0.249447 0.035157 0.018900 -0.364188 -0.268938 0.775933 -0.117646 0.192465 0.629221 0.842390 0.707492 0.475159 0.533005 0.224772 0.033356 0.459391 -0.056970 
EACH 0.067829 0.099592 -0.186133 -0.378288 0.045924 -0.303281 0.083669 0.268294 -0.125968 -0.075800 0.125492 0.238392 -0.052577 -0.588861 0.466934 0.265537 -0.326091 0.652176 -0.121512 -0.583709 0.223364 0.394015 0.000203 -0.296048 -0.059146 0.858245 -0.020713 -0.297503 0.038895 0.275013 0.157597 0.398528 -0.336751 0.479668 -0.385894 -0.048554 0.315793 0.369804 0.136749 -0.310686 0.485402 0.391328 -0.712299 -0.756189 0.201635 0.017730 -0.449239 -0.291173 0.491185 -0.445498 -0.313905 -0.034471 -0.194775 -0.381329 -0.392903 0.230958 0.469052 0.108377 0.514482 -0.259253 1.005985 0.087205 0.574914 0.600930 -0.769424 0.497698 0.129049 -0.292781 0.729989 0.246397 0.254930 0.241630 -0.392219 -0.889787 -0.509228 0.435133 -0.740644 0.469582 -0.634378 0.078533 0.430026 -0.609741 0.259393 -0.132700 0.371145 0.126262 0.209910 -0.650094 0.983805 0.701583 1.041175 0.611411 0.286399 1.145903 -0.020181 0.256691 0.144258 0.654052 0.223429 -0.566852 
DAY -0.153127 0.113573 0.015153 -0.480700 -0.131215 -0.484346 0.213859 0.322709 -0.102153 0.472405 0.273302 0.225062 -0.034304 -0.389982 0.280745 0.456627 -0.298896 0.489343 0.074279 -0.351012 -0.018622 0.055725 0.030772 -0.463582 0.036036 0.446023 -0.023126 -0.264238 0.323433 0.369841 0.165132 0.400230 -0.190689 0.536341 -0.148249 -0.080333 -0.069460 0.265127 0.187385 -0.240537 0.525801 0.693852 -0.321115 -0.897043 0.170330 -0.135547 -0.250348 -0.322989 0.146203 -0.151731 -0.157594 0.145716 0.276078 -0.264929 -0.150474 0.311239 0.063296 0.096522 0.517130 -0.267382 1.003502 -0.092564 0.341078 0.375479 -0.391339 0.722864 0.268985 -0.200985 0.302256 0.146678 0.194909 0.185996 -0.236639 -0.560242 -0.392643 0.429938 -0.495267 0.150076 -0.511930 0.164170 0.412010 -0.307845 0.097768 -0.335276 0.271120 -0.354623 0.081531 -0.511746 0.796580 0.502906 0.927051 0.711447 0.480762 0.945824 -0.142401 0.071713 0.018592 0.541084 0.289808 -0.308445 
8 -0.010743 0.068672 0.193548 -0.667953 -0.012713 -0.384172 0.261216 0.071649 0.091415 0.527391 0.041108 0.285720 -0.062448 -0.321802 0.320684 0.142328 -0.182711 0.438823 -0.000393 -0.198004 0.087540 -0.025413 0.173089 -0.525536 0.188262 0.203239 -0.038813 -0.203818 0.304692 0.232097 0.187544 0.404264 -0.243546 0.487776 -0.065708 0.054639 0.218862 0.193231 0.214587 -0.295784 0.557747 0.595389 -0.423299 -0.778633 0.311382 0.015408 -0.241581 -0.216086 0.413813 -0.281907 -0.004604 -0.241555 0.220795 -0.281416 -0.312642 0.175427 0.474879 0.109007 0.252490 -0.294181 0.937762 -0.145669 0.219542 0.282589 -0.447171 0.538341 0.267972 -0.276638 0.466482 0.347168 0.228104 0.184283 -0.129906 -0.469794 -0.113492 0.337091 -0.402454 0.383236 -0.666616 0.122788 0.304293 -0.330541 0.229497 -0.031477 0.144485 -0.212572 0.024557 -0.513540 0.759158 0.529124 0.816631 0.615246 0.365476 0.820030 -0.052419 0.149365 0.134906 0.581069 0.245057 -0.250659 
5 0.133531 -0.047650 0.135316 -0.272014 0.037688 -0.124638 -0.074071 -0.009520 -0.077910 0.479370 0.026527 0.259461 -0.161575 -0.116077 0.215631 0.185961 0.064255 0.192178 -0.009663 0.009820 -0.077907 -0.037693 0.148356 -0.388427 0.025315 -0.006292 -0.058385 -0.079682 0.122203 0.166452 0.145659 0.314396 -0.266468 0.242984 0.042682 -0.023577 0.211800 0.091488 0.168844 -0.180448 0.325477 0.344647 -0.256688 -0.318915 0.208708 0.108017 -0.117281 -0.132847 0.066854 -0.070259 0.079469 -0.166237 -0.003402 -0.115318 -0.090011 0.072383 0.321283 0.049422 0.074258 -0.097911 0.463726 0.028586 0.083218 0.068816 -0.296873 0.329045 0.231450 -0.169112 0.266300 0.196651 0.190813 0.019138 -0.110246 -0.294061 -0.051289 0.097923 -0.230357 0.214713 -0.295050 0.090390 0.215447 -0.072243 0.175000 0.010837 0.045719 0.020626 0.048656 -0.234755 0.410104 0.220558 0.356071 0.335617 0.153459 0.388231 -0.013547 0.164625 0.005489 0.333664 0.060879 -0.113283 
AND -0.098035 -0.139762 0.133867 -0.400658 -0.066710 -0.392076 -0.040786 -0.117034 -0.103697 0.723093 0.338532 -0.023557 0.009953 -0.476800 0.184332 0.459385 0.016832 0.391905 -0.000847 -0.273023 -0.009334 0.022331 0.122508 -0.559933 -0.041411 0.338018 0.268695 -0.298557 -0.002074 0.452058 -0.004296 0.463736 -0.424902 0.212189 0.032530 -0.160966 0.171885 -0.081296 -0.001212 -0.247594 0.424539 0.567054 -0.228824 -0.376428 0.322636 -0.055917 -0.089741 -0.326286 -0.194716 -0.019689 -0.124166 0.024248 -0.189329 -0.182013 0.010432 -0.049242 0.081653 -0.107013 0.441837 0.099744 0.763839 0.186492 0.282663 0.354774 -0.265407 0.748502 0.654202 -0.067744 0.132989 -0.061784 0.110858 0.217691 -0.376986 -0.663467 -0.113153 0.469274 -0.281808 0.289130 -0.255267 0.318411 0.424885 -0.258732 -0.089246 0.038559 0.371146 -0.127640 0.334414 -0.319059 0.492760 0.253593 0.959324 0.391001 0.319393 0.660542 -0.310249 0.411588 -0.133560 0.325827 0.174324 -0.388268 
ADVANCE -0.113451 -0.360699 0.309638 -0.687250 0.372946 -0.331373 0.397435 -0.203223 0.322215 0.477171 -0.059262 0.041154 0.158524 -0.187246 0.107692 -0.139402 0.375297 0.569776 0.346230 0.248841 -0.295840 0.166387 0.399545 -0.305959 0.249404 0.175774 -0.277070 -0.074991 0.370730 0.351961 0.070017 0.423123 -0.001589 0.010869 -0.220726 0.469498 -0.002456 0.183517 -0.237654 -0.042881 -0.076340 0.097085 -0.282230 -0.644451 0.045690 0.103030 -0.181894 -0.382965 0.953934 -0.073178 0.075359 -0.188676 0.214069 -0.213862 -0.529178 -0.055751 0.252669 0.131344 0.204556 -0.248885 0.263597 -0.174836 0.322353 0.293460 -0.082386 0.038219 -0.017001 -0.380941 0.399638 0.338494 0.219615 -0.212128 0.204782 -0.470420 -0.076448 -0.126222 -0.599998 0.383826 -0.308549 -0.039997 0.027193 -0.427884 0.288836 -0.026800 0.266213 -0.086433 0.147615 -0.201869 0.526854 0.301200 0.249372 0.037664 0.224829 0.734363 -0.024489 -0.083106 0.139530 0.655570 0.036940 0.238888 
DIET/EATING -0.891946 -0.113071 0.765531 -1.035124 -0.123609 -0.651790 0.699689 -0.260215 0.478209 0.934645 0.245960 -0.172351 -0.198971 -0.350829 -0.284325 -0.328216 -0.534555 0.353826 0.458312 -0.123305 -0.183672 -0.003577 0.525333 -0.236935 0.785742 -0.222071 0.211520 -0.207564 0.901873 0.009666 0.023240 0.264673 0.246561 0.705416 -0.277239 0.324676 -0.246642 -0.289331 -0.071674 -0.391251 0.482191 0.962382 0.264524 -1.062457 -0.163254 -0.390413 0.085383 0.072996 0.759340 -0.307503 -0.423458 -0.058553 0.801939 -0.139777 -0.673527 0.225834 0.394210 0.452299 0.094076 -0.695473 0.968004 -0.539348 0.387314 0.223873 -0.250911 0.819364 0.446976 -0.383479 0.758512 0.840966 0.123945 0.193273 0.202109 -0.097199 0.135826 0.173032 -0.404642 0.120904 -0.978794 -0.426891 0.249950 -0.001159 -0.436958 -0.116693 0.259060 -0.420272 -0.113118 -0.370856 0.987243 -0.073350 1.014707 0.942834 0.448973 1.093043 0.181087 0.156755 0.008888 0.744272 -0.081530 0.226570 
ENFAMIL 0.167144 -0.105955 0.393473 -0.560242 0.120045 -0.189171 0.142639 -0.212351 0.046807 0.596153 -0.120357 -0.031185 -0.120636 0.230599 0.169410 -0.054124 0.163647 0.073528 0.106784 0.238051 -0.070630 -0.179515 -0.026609 -0.240435 -0.133573 -0.195689 -0.089992 -0.230935 0.189149 0.259324 0.077913 0.281660 -0.229381 0.221105 0.204374 0.241549 0.402225 -0.150967 -0.085440 -0.015535 0.281640 0.155921 -0.349876 -0.394304 0.085673 0.177609 -0.054965 0.042963 0.174182 -0.149104 0.261005 -0.287236 -0.059338 -0.227228 -0.202094 -0.000306 0.155541 -0.034752 -0.016986 -0.271511 0.410029 0.153056 -0.157762 -0.025934 -0.140658 0.384252 0.051556 -0.180279 0.580337 0.403089 0.253738 0.000770 0.204070 -0.434786 0.039691 -0.132712 -0.245819 0.203210 -0.437115 -0.008665 0.341319 0.116296 0.236973 0.091434 -0.116761 0.105207 -0.161388 -0.206704 0.407237 -0.169311 -0.019980 0.211885 0.562535 0.461700 0.148353 0.306275 0.209318 0.348741 0.327761 0.023136 
SOLID -0.512668 -0.043058 0.256368 -0.475931 -0.035259 -0.277927 0.118255 -0.343239 0.223794 0.604597 0.313936 0.190918 0.041114 -0.618827 0.010201 0.455221 -0.185522 0.783394 -0.156112 -0.207165 -0.094596 -0.155415 0.053431 -0.748749 0.463867 0.290419 0.350603 -0.436648 0.200293 0.378822 0.222974 0.796629 -0.411160 0.201684 -0.037196 -0.281876 -0.012310 0.385562 0.151844 -0.371129 0.444458 0.919747 0.019137 -0.814948 0.249344 -0.375643 -0.210010 -0.217322 0.465279 -0.158557 -0.043406 -0.217350 0.054410 -0.145639 -0.298796 -0.149167 -0.185861 -0.099170 0.601295 0.019175 0.993616 0.360688 0.342401 0.793398 -0.482004 0.862134 0.723732 -0.239787 0.232137 0.193602 0.290357 0.344357 -0.587846 -0.716403 0.027954 0.731695 -0.495219 0.422292 -0.583995 0.320402 0.433563 -0.145675 -0.156027 0.245777 0.677053 -0.302859 0.426188 -0.399540 0.587598 0.718417 1.201474 0.838615 0.222016 1.020159 -0.393397 0.418217 -0.373738 0.356514 0.257752 -0.186577 
FOODS -0.317852 -0.398884 0.273766 -0.402210 -0.011121 -0.549802 0.084233 -0.158940 0.034605 0.762892 0.283879 -0.017960 0.307083 -0.652362 0.332250 0.556236 0.140630 0.422783 -0.016116 0.004200 -0.094173 -0.261140 0.200474 -0.736945 -0.002534 0.372191 0.298277 -0.566185 0.103498 0.652050 0.076868 0.487985 -0.513582 0.279717 -0.145514 -0.176172 0.236937 0.100909 0.008091 -0.632379 0.703955 0.689279 -0.118755 -0.263088 0.142898 -0.029457 -0.287051 -0.113033 0.025882 0.067296 -0.090698 -0.062189 -0.169628 -0.267889 -0.000590 -0.270679 -0.021002 -0.247972 0.494127 0.189076 0.660216 0.359802 0.195887 0.747618 -0.624537 0.845405 0.719530 0.263129 0.062472 0.254044 0.331527 0.220777 -0.358301 -0.694435 -0.124067 0.556679 -0.075709 0.238759 -0.284933 0.565464 0.788190 -0.189856 -0.167887 0.507375 0.863490 -0.210185 0.545280 -0.354137 0.270738 0.256422 1.025951 0.574563 0.496345 0.781965 -0.309154 0.525126 -0.638521 0.330408 0.370337 -0.258233 
DIET: -0.127370 0.066279 -0.127735 -0.320830 -0.053716 -0.257819 0.250305 0.370585 -0.026831 0.297158 0.229805 0.603604 -0.108338 -0.509107 0.483942 0.452099 -0.207579 0.655550 0.190787 -0.233093 0.008982 0.320372 0.302860 -0.498214 0.283227 0.431266 -0.095723 -0.040160 0.405230 0.217753 0.282443 0.440013 -0.170746 0.740638 -0.366359 0.033476 0.126529 0.423758 0.326576 -0.364512 0.437696 0.558048 -0.583243 -0.921890 0.319819 0.019834 -0.429431 -0.347790 0.653553 -0.289282 -0.220180 -0.165971 0.104989 -0.237774 -0.442705 0.248405 0.435069 0.279131 0.440257 -0.514571 0.990203 -0.260391 0.572140 0.562981 -0.683646 0.371321 0.149981 -0.443038 0.667054 0.447632 0.240815 0.135958 -0.315359 -0.714234 -0.342488 0.398288 -0.858732 0.284218 -0.550654 -0.024881 0.485605 -0.393961 0.264287 -0.448457 0.464510 0.029535 0.229867 -0.601222 1.127777 0.726297 0.883660 0.849050 0.222109 1.178689 0.117257 -0.034527 0.090234 0.787860 0.128247 -0.317399 
HABITS 0.029886 0.011748 -0.045582 -0.348328 0.061920 -0.195776 0.475236 0.223232 0.333317 -0.687206 -0.409817 0.554624 0.523907 -0.291141 0.529449 0.377852 0.338743 0.471921 0.014065 0.558575 -0.007675 0.286593 0.254106 -0.689606 0.238783 0.247646 -0.045900 0.309830 0.147967 0.129535 -0.032631 0.020997 -0.527164 0.440798 -0.258361 0.363083 0.212249 0.805449 0.526193 -0.612781 0.035252 0.159241 -0.743919 -0.437801 0.696158 0.529677 -0.680547 0.310829 1.070853 -0.096972 0.320842 -0.567892 0.206933 -0.127933 -0.797667 0.035276 0.463603 -0.151285 -0.267402 -0.432491 0.471251 -0.653901 0.510836 0.433072 -0.930139 -0.039869 0.600577 0.204371 0.221412 0.739684 0.723043 -0.238857 -0.099930 -0.693321 0.051664 0.392094 -1.012608 -0.064638 -0.392527 0.144143 0.397528 -0.217545 0.190964 -0.189394 0.766741 0.147196 0.207866 -0.271994 0.898504 0.623666 0.317507 1.170381 0.182151 0.991297 0.117674 0.297365 -0.155743 0.412540 0.311486 0.010671 
ENFACARE 0.199593 0.008521 0.275777 -0.268678 0.161572 -0.067785 0.046720 -0.262939 0.130602 0.098790 -0.223458 -0.032966 -0.023481 0.153529 0.004250 -0.161015 0.304749 -0.059520 0.225110 0.286338 -0.144746 0.051045 0.063724 -0.115837 -0.118031 -0.235885 -0.027836 0.078102 0.178504 0.076287 -0.178666 0.001097 -0.244697 -0.018025 0.148678 0.293295 0.193270 -0.156567 0.034527 0.030190 -0.133353 0.046554 -0.234737 -0.185193 0.360915 0.199314 -0.009377 0.013858 0.163321 -0.077878 0.244827 -0.188732 0.008131 -0.114890 -0.213599 -0.051860 0.262696 -0.161737 -0.184059 -0.185834 0.098018 -0.179103 -0.035170 -0.296120 -0.007576 0.101713 0.175360 -0.037614 0.274821 0.218685 0.218367 -0.213704 0.236292 -0.286792 0.051995 -0.273329 -0.232376 -0.003277 -0.284093 -0.209221 0.015331 0.067344 0.194529 0.001798 -0.173108 0.259969 -0.133723 -0.027586 0.211097 -0.200776 -0.120607 0.086070 0.203148 0.165124 0.188146 0.118971 0.116897 0.233240 0.093470 0.075893 
LIPIL 0.384950 -0.029845 0.190043 -0.237320 0.019327 -0.077736 -0.043350 -0.060342 0.245563 0.114429 -0.179555 0.174228 -0.192059 -0.056578 0.177983 -0.321601 0.191620 0.114128 0.485786 0.453161 -0.439091 -0.033221 -0.045666 -0.186611 -0.235020 -0.192439 -0.069589 0.093392 0.482839 0.277501 0.042411 0.018929 -0.113960 0.023744 0.077940 0.083755 0.488942 -0.474733 0.197214 0.068571 0.057403 0.352380 -0.079107 -0.607120 0.166854 0.165614 -0.056102 -0.277395 0.143713 -0.014177 0.041093 -0.099968 0.051073 -0.349454 -0.243819 0.081597 0.427380 -0.408268 0.046217 -0.211630 0.372305 0.049508 -0.141777 -0.132930 -0.336267 0.052766 0.022980 -0.220025 0.519514 0.345273 0.273289 -0.318420 0.249635 -0.544161 -0.009367 -0.484596 -0.378853 0.288652 -0.496625 -0.280942 0.304389 -0.050451 0.451097 0.185459 -0.328154 0.243873 0.035674 -0.433663 0.500557 -0.215930 0.111440 -0.103109 0.421819 0.163401 0.262509 -0.009213 0.148848 0.518804 0.196068 0.121889 
CEREAL 0.238151 0.016803 0.041581 0.053522 -0.044927 -0.112036 -0.040259 0.153995 -0.359615 0.277501 0.226651 0.339489 0.013836 -0.131217 0.241654 0.438927 -0.013062 0.133765 0.094504 -0.223789 0.322304 0.145547 0.239421 -0.271542 -0.239499 0.064107 0.141315 -0.074544 0.112194 0.144129 -0.031599 -0.159474 -0.390424 -0.037849 0.007510 -0.498974 0.094856 0.163662 0.292168 -0.094647 0.235566 0.495416 -0.187345 -0.349703 0.291666 0.064036 -0.082723 0.057095 -0.107781 0.059089 0.000217 -0.204281 -0.243409 0.071591 0.252907 0.122188 0.205832 -0.329785 0.198782 0.006959 0.519328 0.196730 -0.195946 0.036989 -0.435657 0.382013 0.178701 -0.071129 0.136774 0.242794 0.004288 0.174713 -0.192985 -0.367028 -0.409202 0.034433 -0.144375 0.037681 -0.250607 0.073952 0.454191 -0.134143 0.265461 -0.085272 -0.041469 0.151766 0.148648 -0.220226 0.152772 0.169351 0.345449 0.494023 -0.049489 0.142791 -0.225895 0.025370 -0.129724 0.304874 0.125969 -0.278937 
BREAST 0.209386 -0.149712 0.260688 0.067195 0.497187 0.196120 -0.564330 -0.400810 -0.711891 0.799813 0.374054 -0.156801 -0.407375 0.236756 -0.281247 0.648673 0.839808 -0.169522 0.312851 0.230206 0.215603 0.302578 0.533500 -0.071385 0.022704 -0.246640 0.217205 0.408991 -0.369473 0.033387 -0.261119 -0.065096 -0.499133 -0.176820 0.189796 0.102443 -0.147124 -0.294307 0.104839 0.347426 -0.837966 -0.096307 -0.644653 0.505958 0.984132 0.320653 0.431081 -0.252495 -0.476877 0.041672 0.366837 -0.046240 -0.571909 0.350615 0.266697 -0.073616 0.317209 0.074883 -0.175521 0.070224 -0.097096 -0.376982 0.006875 -0.897516 0.684038 0.268613 0.975273 -0.377514 -0.168211 -0.440148 -0.143433 -0.126204 -0.163583 -0.125902 -0.399903 -0.146089 -0.333886 -0.240798 0.134778 -0.347505 -0.407883 0.227577 -0.170871 -0.748133 -0.176919 0.845825 -0.198199 0.337202 0.140123 -0.117572 0.080861 -0.042266 -0.652485 -0.125458 -0.077107 0.111641 -0.162318 0.307802 -0.598657 -0.060243 
WITH 0.084449 -0.245783 0.297164 0.418104 0.209393 0.221117 0.185097 -0.049256 -0.052103 0.587062 0.282427 0.090101 -0.052321 -0.148874 -0.090497 0.290720 0.208458 0.091159 0.298872 0.407411 0.138728 -0.328041 -0.031935 -0.071786 0.128763 -0.481390 0.505334 0.151318 0.194194 0.176129 -0.098765 0.013111 -0.306044 0.100126 -0.062495 -0.296826 0.167078 0.192255 0.434988 -0.211319 -0.081634 0.277022 0.079799 0.175148 0.564282 0.145888 -0.181148 0.130554 0.291183 0.089518 0.254178 -0.430199 -0.811449 0.110173 -0.102130 -0.394868 -0.138870 -0.228213 -0.217395 0.081713 0.302745 0.443799 -0.178912 0.023734 -0.299266 0.066813 0.027604 -0.229227 0.238635 0.613391 0.339953 0.075757 -0.180848 -0.519194 -0.548336 -0.232958 -0.251599 -0.372976 -0.279314 -0.203358 0.724013 0.597923 -0.003183 0.244342 0.447201 0.512983 0.076027 0.076804 0.079333 -0.186986 0.296127 0.555219 -0.011889 0.020548 0.241010 0.454166 -0.592959 -0.171303 0.179081 -0.076917 
STAGE -0.361722 0.011225 0.163625 -0.299682 -0.232762 -0.428093 0.093010 -0.233505 0.028946 0.445287 0.338404 0.020698 0.150304 -0.584128 0.097048 0.501815 -0.171720 0.379061 0.035100 -0.446564 0.142818 0.007971 0.042892 -0.578687 0.020277 0.265849 0.428813 -0.497836 0.207470 0.427842 -0.136319 0.280482 -0.591930 0.140455 -0.001619 -0.355928 0.151826 0.005413 -0.005101 -0.397496 0.393980 0.832926 0.000249 -0.519055 0.349076 -0.242341 -0.147152 -0.065939 -0.157766 0.003519 -0.244213 -0.115222 -0.075861 -0.160083 0.075460 -0.196602 -0.113714 -0.311583 0.627431 -0.047059 0.850495 0.178514 0.226433 0.500677 -0.491356 0.977948 0.772466 0.168308 0.164832 0.013903 0.030090 0.338867 -0.429813 -0.750891 -0.047162 0.615967 -0.208157 0.190815 -0.389425 0.246876 0.557542 -0.215739 -0.136132 0.122922 0.494152 -0.126539 0.462974 -0.379633 0.336003 0.312569 1.054039 0.757423 0.374731 0.854127 -0.356549 0.312883 -0.347973 0.322846 0.349484 -0.442173 
1 0.006914 -0.155375 0.282667 -0.081271 0.139502 -0.083395 -0.352216 -0.338905 -0.308070 0.636127 0.204792 0.057286 -0.128797 -0.134411 0.003476 0.449108 0.332818 0.056095 0.045243 0.035964 0.043121 -0.001694 0.321388 -0.417034 -0.079308 -0.117324 0.142773 -0.124937 -0.038199 0.192716 -0.036193 0.186038 -0.585289 -0.024205 0.157670 -0.230345 0.204923 -0.063937 -0.019166 -0.118176 -0.035250 0.418903 -0.160035 0.037292 0.435737 0.075162 0.082785 0.009465 -0.384568 0.131204 0.129638 -0.211792 -0.299105 0.057501 0.278382 -0.169015 0.119115 -0.188344 0.156710 0.120863 0.158073 0.074651 -0.065139 -0.168796 -0.119489 0.553351 0.683706 0.053995 0.003557 -0.079925 -0.005324 0.027362 -0.119929 -0.315561 -0.102656 0.153325 -0.017307 0.112198 -0.147723 -0.005414 0.153476 0.112411 -0.029145 0.108582 0.162838 0.310162 0.132426 -0.016070 -0.036667 0.042555 0.355237 0.286666 -0.013119 0.125690 -0.161002 0.196405 -0.357697 0.254264 -0.057218 -0.108828 
7 0.161415 -0.024597 0.071830 -0.325557 0.007267 -0.202934 0.035221 0.148041 -0.104553 0.376474 0.038372 0.341166 -0.099019 -0.130505 0.313656 0.213556 0.007150 0.270850 0.004955 -0.087651 0.031020 0.065334 0.228567 -0.355359 0.002306 0.140618 -0.174464 -0.100500 0.185818 0.171792 0.189755 0.258544 -0.224236 0.255662 -0.058635 -0.086398 0.214127 0.200509 0.101535 -0.158126 0.324559 0.338743 -0.356704 -0.470180 0.141138 0.131690 -0.153972 -0.164102 0.201053 -0.083775 -0.000830 -0.205004 0.055306 -0.147613 -0.071455 0.142635 0.347608 0.038022 0.228406 -0.187933 0.491149 -0.007700 0.063094 0.134179 -0.373216 0.300014 0.072471 -0.178776 0.308413 0.222427 0.099953 0.056318 -0.056461 -0.317567 -0.144871 0.100771 -0.292270 0.282832 -0.310826 0.091084 0.231284 -0.242370 0.293593 -0.051323 0.037930 -0.025593 0.086847 -0.317934 0.436434 0.342928 0.337583 0.340172 0.157966 0.447619 -0.057904 0.010054 0.098554 0.466835 0.082609 -0.143224 
ISOMIL 0.024817 -0.080220 0.265028 -0.311353 0.078231 -0.136684 0.069515 -0.146743 0.062497 0.302642 -0.034479 -0.000216 -0.030362 -0.016144 0.045402 -0.054232 0.106621 0.138756 0.141735 0.182133 -0.129244 -0.024567 0.113236 -0.175186 0.023471 -0.105297 -0.035096 -0.021432 0.182960 0.151049 0.007932 0.158402 -0.181691 0.088568 0.024697 0.106292 0.128529 -0.053868 0.008610 -0.034653 0.030927 0.226116 -0.099772 -0.356377 0.142748 0.076706 -0.043006 -0.009698 0.188450 -0.030244 0.098420 -0.133749 0.048215 -0.067249 -0.140513 0.034272 0.145298 -0.059737 0.002313 -0.143210 0.285221 -0.074631 0.053507 -0.039655 -0.117803 0.176663 0.155535 -0.109912 0.279344 0.249598 0.176880 -0.076494 0.118017 -0.295220 -0.018220 -0.069403 -0.281199 0.111801 -0.298474 -0.090421 0.129665 0.022369 0.097652 0.051230 0.019636 0.069406 -0.018312 -0.139471 0.324178 -0.045942 0.143179 0.232969 0.244483 0.284662 0.084927 0.089930 0.045749 0.243948 0.100221 0.071732 
GOOD 0.306539 0.415268 0.063402 -0.747233 -0.380291 -0.415641 0.454790 0.247708 0.085727 -0.002763 -0.109340 0.275885 -0.245729 0.014557 0.235089 0.019719 -0.416829 -0.090514 0.217854 -0.451142 0.494845 0.179011 -0.111719 -0.116402 -0.419598 0.126138 0.235443 -0.225654 0.549274 0.119538 -0.342498 -0.414288 -0.192998 0.454676 0.249969 -0.008234 0.350013 -0.547717 0.556255 -0.011120 0.716022 0.667548 -0.778884 -0.844919 0.538368 0.371973 -0.097158 -0.157808 0.016778 -0.504391 -0.101005 -0.262580 0.472537 -0.406636 -0.340199 0.280989 1.002082 -0.358063 0.226549 -0.760138 1.241824 -0.201124 -0.398554 -0.371125 -0.389819 0.803895 0.379875 -0.221382 0.822930 0.332382 -0.160425 0.236227 0.023061 -0.646715 -0.059797 -0.122023 -0.353312 0.023376 -0.998349 -0.265000 0.458813 -0.471903 0.633480 -0.666661 -0.755494 0.189696 -0.201825 -0.652259 1.102964 0.017374 0.476011 0.463809 0.408596 0.744438 -0.029862 0.166269 0.541773 0.928034 0.304923 -0.466757 
IRON -0.100106 -0.577309 0.622565 -0.023505 0.190250 -0.362271 -0.180067 -0.371060 -0.086603 0.483804 0.128698 0.265336 0.571912 -0.554416 0.110310 0.199039 0.603321 0.309756 0.380247 0.620568 -0.380903 0.172963 0.888866 -0.737206 -0.096496 0.283890 0.214133 -0.265996 0.190987 0.387838 0.009857 0.230128 -0.395680 -0.338581 -0.347467 -0.602530 0.026070 0.082170 0.132767 -0.333631 0.324304 0.984904 -0.000225 -0.615085 -0.018529 0.130574 0.252046 0.027171 0.606969 0.259982 -0.095025 -0.177838 -0.322271 -0.311340 -0.130060 -0.181034 -0.142856 -0.641029 0.563959 0.386331 0.074425 0.966155 0.137108 0.746530 -0.720866 0.673799 0.569063 0.135174 -0.014439 0.758436 0.635068 -0.098217 0.044687 -0.676674 -0.293949 -0.303180 -0.289652 0.284704 -0.368619 0.328191 0.759680 0.038480 -0.120610 0.983008 0.785258 0.112603 0.476193 -0.255235 0.068931 -0.302031 0.499615 0.375217 -0.003334 0.236726 -0.453319 0.599645 -0.756530 0.146974 -0.067947 0.457506 
BABY -0.279682 0.206166 0.086512 -0.196717 -0.291684 -0.285989 0.106878 -0.097564 -0.083189 0.277085 0.281086 0.262254 0.064804 -0.491827 0.081429 0.558235 -0.210551 0.309815 -0.080274 -0.516776 0.385631 0.094664 0.076077 -0.558008 0.008357 0.269126 0.452278 -0.398969 0.151488 0.206042 -0.112966 0.107020 -0.633812 0.188066 0.024451 -0.408252 0.170367 0.133578 0.151040 -0.381622 0.432213 0.866042 -0.098589 -0.461731 0.485462 -0.222019 -0.156293 0.105677 -0.215689 -0.089643 -0.161769 -0.297144 0.000078 -0.063739 0.055492 -0.132200 0.030950 -0.318612 0.449314 -0.081351 0.784254 0.096000 0.074554 0.263277 -0.562636 0.953361 0.779723 0.130484 0.098400 0.041382 -0.023266 0.401831 -0.430444 -0.522815 -0.078355 0.665981 -0.114471 0.176945 -0.529335 0.138463 0.483433 -0.110033 -0.043716 0.040624 0.312477 -0.049065 0.290045 -0.286756 0.237875 0.456786 1.009114 0.887694 0.113834 0.662745 -0.280004 0.242802 -0.308365 0.335939 0.235890 -0.504853 
START 0.040021 0.334929 -0.054290 -0.479535 -0.376429 -0.289996 0.556709 0.311849 0.299042 -0.304214 -0.076884 0.110322 -0.046954 -0.054598 0.129021 -0.155107 -0.355461 0.004575 0.381328 -0.109253 0.232208 0.230179 -0.032168 0.125137 -0.364001 0.216019 0.238148 -0.120509 0.537367 0.232605 -0.342021 -0.504361 -0.137658 0.321139 -0.123351 0.110593 0.293794 -0.517154 0.299878 -0.023934 0.376705 0.345738 -0.440085 -0.674102 0.161828 0.274322 -0.105835 -0.030371 0.312649 -0.244817 -0.261463 -0.040888 0.407434 -0.226802 -0.390418 0.243527 0.654610 -0.364362 0.282040 -0.768879 0.915738 -0.190234 -0.227976 -0.039765 -0.494070 0.359317 0.222930 -0.137230 0.634832 0.448290 -0.101815 0.032121 0.016708 -0.702252 -0.012005 -0.246988 -0.580428 -0.015579 -0.781633 -0.255973 0.496119 -0.411028 0.392430 -0.595587 -0.379442 0.284252 0.083585 -0.520505 1.044827 -0.230674 0.298451 0.326522 0.335959 0.723564 -0.024141 0.021303 0.436379 0.661635 0.160436 -0.221196 
CARNATION 0.245504 0.563700 0.336995 -1.167019 -0.494294 -0.552752 0.799644 0.140843 0.424273 0.216548 -0.190058 0.017455 -0.312027 0.099315 0.174968 -0.324276 -0.490692 -0.048989 0.398485 -0.336006 0.331182 -0.036339 -0.102386 -0.143900 -0.339229 -0.034988 0.321669 -0.283944 0.742297 0.268558 -0.428497 -0.419604 -0.353326 0.510808 0.235308 0.237572 0.488054 -0.752605 0.383776 -0.004118 0.699532 0.827064 -0.588181 -1.128062 0.587421 0.214581 -0.101353 -0.052081 0.257487 -0.441081 -0.007764 -0.388647 0.598312 -0.427871 -0.422028 0.345121 1.043565 -0.491147 0.143686 -0.925506 1.510144 -0.344427 -0.453009 -0.385274 -0.429087 0.968106 0.504040 -0.418877 0.942045 0.598621 0.046875 0.302114 0.170725 -0.745997 0.018309 -0.234838 -0.544028 0.187402 -1.436403 -0.398120 0.518516 -0.369128 0.602653 -0.470860 -0.781715 0.102705 -0.313547 -0.709551 1.269275 -0.123314 0.674512 0.621565 0.785194 0.898046 0.060377 0.240391 0.668377 0.943887 0.505878 -0.461558 
MILK 0.247341 -0.088607 0.163029 0.204379 0.348486 0.132518 -0.413000 -0.347954 -0.588584 0.605467 0.321385 0.087970 -0.218132 0.037005 -0.161627 0.491904 0.544876 -0.182728 0.337331 0.100498 0.198965 0.436035 0.436172 -0.170166 -0.214591 -0.197326 0.228756 0.386925 -0.238618 0.045510 -0.375638 -0.225449 -0.610932 -0.153801 0.321812 -0.099432 0.012692 -0.196037 0.223835 0.204598 -0.562144 0.208434 -0.514029 0.267329 0.889101 0.423931 0.294043 -0.050132 -0.521270 0.260251 0.399380 -0.129181 -0.521684 0.342864 0.223493 -0.109510 0.370472 -0.003077 -0.179037 0.066023 -0.040213 -0.206724 -0.010065 -0.671661 0.296355 0.343494 0.744393 -0.185813 -0.022597 -0.189490 -0.169304 -0.061949 -0.022471 -0.310218 -0.352459 -0.172880 -0.223518 -0.255428 0.040746 -0.399193 -0.110008 0.151946 -0.058054 -0.503809 -0.137691 0.724373 -0.122921 0.259435 0.005968 -0.283847 0.091972 0.144274 -0.344220 -0.299344 -0.120753 0.226567 -0.216569 0.171992 -0.391559 -0.018649 
FOODS: -0.270881 -0.178821 0.024150 -0.690264 -0.049049 -0.684720 0.148075 0.123519 -0.023911 0.633842 0.314579 0.127825 0.152020 -0.780173 0.552792 0.619115 -0.173622 0.795179 -0.087824 -0.367792 -0.028112 0.056928 0.147648 -0.783336 0.079405 0.817609 0.078251 -0.492098 0.066668 0.666593 0.224098 0.752129 -0.421817 0.576032 -0.276205 0.000790 0.178290 0.305988 0.076928 -0.553863 0.806607 0.730468 -0.531677 -0.877533 0.197212 -0.076540 -0.499850 -0.436539 0.263073 -0.205395 -0.202662 0.114973 0.061952 -0.349624 -0.244780 0.137852 0.193783 0.076180 0.662293 -0.068046 1.250482 0.038702 0.668509 0.896419 -0.639408 0.835718 0.634181 -0.126755 0.396798 0.165761 0.340186 0.304416 -0.521609 -0.917253 -0.288508 0.797025 -0.596925 0.500024 -0.502670 0.562781 0.668620 -0.605802 -0.000612 -0.052706 0.736000 -0.359974 0.450575 -0.693650 1.019234 0.791479 1.429031 0.790808 0.592410 1.388611 -0.259152 0.348777 -0.136479 0.699910 0.418441 -0.535506 
HABITS: 0.080713 0.184134 -0.233769 -0.691260 -0.010050 -0.400755 0.649000 0.483178 0.389043 -0.612436 -0.359155 0.588223 0.385568 -0.390364 0.721883 0.270220 -0.006946 0.733337 -0.044809 0.138703 0.022576 0.321629 0.066931 -0.664692 0.303530 0.570016 -0.266035 0.199009 0.237043 0.214857 0.156451 0.268881 -0.319848 0.731262 -0.334330 0.562923 0.191983 0.855165 0.496354 -0.564902 0.303524 0.148754 -0.950550 -0.894421 0.594386 0.393362 -0.841648 -0.057761 1.214260 -0.366396 0.203000 -0.387220 0.468728 -0.311540 -0.938498 0.329752 0.604794 0.159140 -0.047252 -0.627593 0.942973 -0.840261 0.746111 0.597341 -0.872589 0.000165 0.304596 -0.073962 0.504531 0.641031 0.674175 -0.138623 -0.144604 -0.786908 -0.056001 0.580681 -1.188989 0.177620 -0.601604 0.197412 0.318512 -0.585209 0.395408 -0.477666 0.596848 -0.158890 0.082458 -0.566592 1.332334 1.014731 0.678346 1.131263 0.430115 1.401144 0.171442 0.100874 0.269721 0.700128 0.482040 -0.225525 
RICE 0.145139 -0.086847 0.263075 0.225605 0.071355 -0.079892 0.005385 0.118834 -0.338588 0.434542 0.230836 0.350044 0.101241 -0.329358 0.184021 0.420160 0.171652 0.053796 0.271650 0.110740 0.214674 0.032356 0.483277 -0.384404 -0.077914 -0.095319 0.218646 -0.074608 0.249794 0.127680 -0.111240 -0.080446 -0.472588 -0.036134 -0.190738 -0.550398 0.137793 0.253773 0.297171 -0.212874 0.073623 0.708020 -0.086739 -0.277763 0.431844 0.170155 0.034789 0.054467 0.075210 0.204165 0.032271 -0.337733 -0.493364 0.017052 0.197358 -0.141256 0.036211 -0.336559 0.250272 0.043748 0.237628 0.417076 -0.122355 0.020008 -0.488460 0.440875 0.204895 0.004666 0.063393 0.381174 0.194355 0.174668 -0.102318 -0.428797 -0.540986 -0.180077 -0.143799 -0.134567 -0.262986 -0.003585 0.498715 0.074669 0.092827 0.261064 0.254124 0.223746 0.148882 -0.181168 -0.013340 -0.017445 0.395897 0.645273 -0.021683 0.099010 -0.169206 0.232811 -0.433324 0.081941 0.016044 -0.078717 
DAY, 0.017438 0.214532 0.022040 -0.680489 -0.215871 -0.635577 0.428467 0.451623 0.027911 0.337061 0.176003 0.279091 0.001494 -0.367167 0.392752 0.295467 -0.377079 0.455444 0.118258 -0.416708 0.116969 0.065777 0.083062 -0.524483 0.044529 0.386484 -0.074651 -0.197601 0.411330 0.311738 0.133670 0.267214 -0.179451 0.599007 -0.118109 -0.024670 0.045265 0.240434 0.185050 -0.280245 0.590649 0.660858 -0.434186 -1.029018 0.275246 -0.028803 -0.288382 -0.332488 0.259836 -0.214341 -0.149873 -0.023863 0.381634 -0.329844 -0.233385 0.421565 0.312597 0.049605 0.401002 -0.384659 1.151521 -0.331356 0.319094 0.288895 -0.472648 0.695384 0.200246 -0.178140 0.425196 0.261784 0.190156 0.186300 -0.124402 -0.548396 -0.318764 0.444092 -0.471568 0.212831 -0.626230 0.202488 0.380590 -0.446604 0.234296 -0.316792 0.145425 -0.454016 -0.010857 -0.604968 0.893633 0.559726 1.004418 0.754841 0.577710 0.932783 -0.083827 0.024561 0.256793 0.642611 0.419989 -0.434740 
A 0.401585 0.298327 -0.188507 0.025077 -0.019278 -0.101895 -0.099993 0.292008 -0.502445 0.092662 0.232865 0.230112 -0.205528 -0.112047 0.207476 0.453086 -0.028219 0.029899 0.019273 -0.509439 0.541967 0.342366 0.122931 -0.144736 -0.269000 0.185595 0.065486 0.098712 -0.117176 0.026645 -0.177877 -0.183320 -0.446988 0.032886 0.071241 -0.268586 0.148758 0.098023 0.219617 0.051832 -0.083234 0.234131 -0.548744 -0.171062 0.620348 0.206799 -0.029423 -0.152819 -0.437918 -0.066432 0.032008 -0.113457 -0.292078 0.096933 0.264562 0.171887 0.388221 -0.068864 0.125832 -0.090319 0.473776 -0.215664 0.012581 -0.388307 -0.104151 0.355553 0.257360 -0.123187 0.135140 -0.235983 -0.234471 0.196449 -0.225332 -0.307790 -0.499094 0.139260 -0.157058 -0.025667 -0.177415 -0.091970 -0.008978 -0.292934 0.264798 -0.490204 -0.299677 0.246947 -0.088437 -0.184285 0.244429 0.325309 0.431259 0.370609 -0.143989 0.143086 -0.162690 -0.020831 0.140743 0.315251 -0.026124 -0.550877 
FEEDS 0.209778 -0.114282 0.035914 0.072158 0.447976 0.111898 -0.593747 -0.505324 -0.756940 0.870721 0.525908 -0.072697 -0.356031 -0.008613 -0.284808 0.659355 0.492208 -0.153939 0.301707 -0.176978 0.227753 0.560878 0.328362 -0.226924 -0.256101 -0.001204 0.318544 0.358012 -0.528257 0.182801 -0.465218 -0.080544 -0.658862 -0.228892 0.527637 0.061301 -0.216304 -0.314491 0.233987 0.359500 -0.665655 0.203112 -0.664209 0.276922 1.114826 0.412382 0.354045 -0.373959 -0.896304 0.286351 0.488193 0.198131 -0.541706 0.415357 0.228636 -0.012567 0.459016 0.193217 -0.186379 0.208229 0.168212 -0.355440 0.229372 -0.794115 0.689744 0.569953 1.118622 -0.352556 -0.142965 -0.639924 -0.281177 -0.004380 -0.243444 -0.355566 -0.349032 0.038502 -0.306839 -0.250819 0.207089 -0.280141 -0.440726 -0.041013 -0.192477 -0.901863 -0.267709 0.605639 -0.117949 0.324663 0.139042 -0.172294 0.390424 0.006438 -0.381399 -0.270941 -0.335353 0.320708 -0.061658 0.190301 -0.476373 -0.174324 
PER 0.317669 0.144832 -0.013393 -0.036928 0.078719 -0.045981 -0.113651 0.066830 -0.311740 0.137278 0.082142 0.165535 -0.164255 -0.025636 0.142728 0.258367 0.147497 0.007776 0.094938 -0.186068 0.301655 0.266360 0.186811 -0.110458 -0.147818 0.039004 0.004265 0.132243 -0.031591 0.023062 -0.132377 -0.097512 -0.396796 0.034129 0.041665 -0.077336 0.186565 0.034156 0.127891 0.031719 -0.151283 0.129345 -0.492124 -0.095334 0.529796 0.242785 -0.005109 -0.067729 -0.164153 -0.052932 0.102160 -0.193416 -0.240150 0.053172 0.103482 0.045729 0.380728 -0.046777 0.017506 -0.121392 0.258202 -0.213970 0.013567 -0.332526 -0.083015 0.193460 0.228294 -0.114955 0.193249 -0.037333 -0.082426 0.039104 -0.055472 -0.290087 -0.315011 -0.024715 -0.205430 0.005151 -0.177745 -0.173998 -0.005835 -0.119253 0.234356 -0.308375 -0.181498 0.345476 -0.073990 -0.100932 0.215479 0.141619 0.190063 0.266261 -0.107490 0.132318 0.001645 0.012272 0.085645 0.311023 -0.059279 -0.278703 
1/2 0.084452 -0.233545 0.355164 0.072983 0.359070 0.142218 -0.284847 -0.428121 -0.189861 0.552374 0.000484 0.194591 -0.167567 0.047055 -0.043284 0.199813 0.600557 -0.062173 0.361030 0.391917 -0.178206 0.170143 0.458480 -0.242012 0.022459 -0.387266 0.001178 0.206894 0.137781 0.032043 -0.112209 0.080795 -0.436590 0.034466 0.093211 0.099420 0.189352 -0.047535 0.093648 -0.033115 -0.305036 0.173821 -0.269758 0.072074 0.491772 0.278734 0.072771 0.071991 0.085578 0.103043 0.243295 -0.352985 -0.330620 0.087106 -0.050899 -0.227853 0.290595 0.007514 -0.144116 -0.129476 -0.125286 -0.088121 0.026493 -0.291255 -0.084295 0.133633 0.381460 -0.135809 0.239518 0.274065 0.154892 -0.229779 0.127862 -0.315367 -0.120770 -0.288250 -0.267932 -0.051709 -0.140262 -0.375919 0.142619 0.285198 0.067740 -0.052568 0.133356 0.652533 0.014330 0.093503 0.089882 -0.244987 -0.119529 0.222102 -0.114549 0.100756 0.190343 0.129066 -0.272770 0.290013 -0.225803 0.206531 
25 0.077393 -0.266234 0.400018 0.136577 0.431729 0.222267 -0.344527 -0.474496 -0.273281 0.601975 0.007439 0.192762 -0.210015 0.154765 -0.115959 0.237848 0.726320 -0.114733 0.350748 0.508617 -0.132408 0.218338 0.562880 -0.168253 0.062490 -0.458577 -0.006762 0.335633 0.057220 -0.047552 -0.116832 0.027450 -0.451252 0.023319 0.132127 0.116026 0.147544 -0.027307 0.114337 0.049989 -0.464946 0.094527 -0.355947 0.226328 0.591353 0.377801 0.173341 0.158903 0.055399 0.139791 0.346404 -0.400415 -0.371972 0.210367 -0.024220 -0.245143 0.323330 0.056267 -0.269674 -0.111946 -0.275870 -0.181529 -0.008417 -0.462474 0.023622 0.058738 0.480381 -0.165304 0.183097 0.278950 0.116204 -0.259263 0.196611 -0.236797 -0.133226 -0.346872 -0.306516 -0.128354 -0.084944 -0.480033 0.037037 0.416162 0.010023 -0.120746 0.126493 0.803858 -0.050740 0.218830 0.048920 -0.318427 -0.258891 0.222550 -0.266172 -0.067292 0.227647 0.131868 -0.316287 0.262740 -0.382537 0.299590 
NO 0.146871 -0.091395 0.312033 0.011079 0.253348 0.063572 -0.172013 -0.235841 -0.264220 0.347093 -0.004635 0.231554 -0.211163 0.094623 0.000760 0.174481 0.530656 -0.105181 0.392764 0.318432 -0.063074 0.258806 0.533473 -0.218901 -0.038636 -0.372380 -0.053464 0.249255 0.167439 -0.064717 -0.113744 -0.071198 -0.412483 0.093782 0.045787 0.098591 0.143839 -0.008108 0.077270 -0.012663 -0.353720 0.141160 -0.341597 -0.041094 0.542811 0.352239 0.101756 0.076354 0.024712 0.089742 0.194232 -0.349440 -0.248874 0.140141 -0.030814 -0.060435 0.377816 -0.016571 -0.176042 -0.255662 -0.073332 -0.332721 0.090926 -0.497477 -0.085895 0.159244 0.328649 -0.084368 0.304035 0.269740 0.090262 -0.214519 0.177884 -0.262223 -0.131990 -0.280518 -0.293903 -0.124726 -0.136947 -0.424776 0.033374 0.188303 0.102443 -0.165695 0.032688 0.592429 -0.081936 0.049577 0.150207 -0.210143 -0.139906 0.322375 -0.112544 0.079931 0.221676 0.011715 -0.128483 0.330869 -0.235733 0.081146 
TABLE -0.106495 0.238310 -0.026434 -0.329035 -0.290920 -0.390999 0.152700 0.081006 -0.169619 0.304409 0.369539 0.323913 0.027176 -0.532503 0.220142 0.654646 -0.261508 0.466789 -0.102303 -0.613012 0.481559 0.162025 0.069648 -0.619191 0.008829 0.460156 0.375325 -0.333628 0.101644 0.300651 -0.053861 0.176991 -0.640642 0.214752 0.025359 -0.439470 0.128664 0.235876 0.266429 -0.329813 0.451708 0.888650 -0.378080 -0.668657 0.615638 -0.126725 -0.209879 -0.130189 -0.137250 -0.140279 -0.109680 -0.227874 -0.004966 -0.100864 0.028202 0.034515 0.168279 -0.282096 0.561027 -0.121222 1.081527 0.016930 0.156961 0.287709 -0.519855 0.993874 0.750271 -0.040278 0.172347 -0.004635 -0.038932 0.454042 -0.497373 -0.680068 -0.262573 0.708834 -0.325379 0.257618 -0.580968 0.234767 0.436950 -0.336776 0.083585 -0.155785 0.246804 -0.125972 0.269517 -0.437617 0.519348 0.691068 1.195892 0.920688 0.139404 0.780687 -0.378613 0.234887 -0.132777 0.500989 0.285139 -0.627561 
FOOD -0.033954 0.067166 0.101265 -0.363848 -0.149549 -0.526020 0.057440 0.042575 -0.240180 0.512533 0.378469 0.176836 0.072020 -0.427546 0.256841 0.611855 -0.082112 0.258105 0.035809 -0.446926 0.358449 0.038868 0.261687 -0.631252 -0.025287 0.251608 0.181479 -0.331319 0.133333 0.347209 -0.044409 0.103542 -0.640630 0.200544 0.033605 -0.346551 0.135513 0.110488 0.058333 -0.367188 0.343738 0.737043 -0.348660 -0.412270 0.507090 0.008446 -0.107581 -0.090958 -0.305549 0.017597 -0.057426 -0.193186 -0.055582 -0.109904 0.241736 0.004594 0.248624 -0.232492 0.444063 -0.074418 0.769259 -0.148674 0.083563 0.163077 -0.432587 0.940120 0.695036 0.174281 0.099940 -0.036231 -0.047643 0.297373 -0.274282 -0.514705 -0.258325 0.569466 -0.042069 0.161175 -0.320801 0.245345 0.314967 -0.312154 0.048419 -0.004594 0.314836 -0.138117 0.259437 -0.324764 0.218427 0.412002 0.958971 0.689168 0.250406 0.513141 -0.330327 0.177855 -0.253970 0.487457 0.282425 -0.480505 
Q 0.101806 -0.151374 0.311403 0.219076 0.310802 0.199806 -0.230775 -0.383513 -0.161117 0.415106 -0.013011 0.245009 -0.176211 0.083394 -0.070883 0.172558 0.661221 -0.140480 0.458699 0.363893 -0.154224 0.241678 0.464056 -0.148131 -0.023030 -0.418452 0.021348 0.235009 0.225306 -0.030568 -0.186928 -0.041172 -0.422723 -0.003051 0.072727 0.103977 0.186283 -0.066234 0.095304 0.004838 -0.377129 0.162659 -0.273810 0.102522 0.527718 0.295049 0.090181 0.116293 0.086034 0.073534 0.219115 -0.429230 -0.368681 0.086471 -0.065932 -0.295334 0.263346 -0.066342 -0.151388 -0.191674 -0.241270 -0.093035 -0.016503 -0.367304 -0.116755 0.114939 0.297173 -0.112873 0.271175 0.327599 0.132493 -0.253033 0.167212 -0.329860 -0.171934 -0.416812 -0.247265 -0.143973 -0.138750 -0.513669 0.178333 0.347065 0.118538 -0.071386 0.101196 0.781913 0.026375 0.126187 -0.005515 -0.340255 -0.232911 0.223559 -0.187830 0.053846 0.286281 0.079083 -0.304021 0.306131 -0.252584 0.165138 
FORTIFIED -0.207603 -0.386076 0.348180 0.244850 0.140840 0.040919 -0.099370 -0.346284 -0.096265 0.849963 0.365870 0.139790 0.077061 -0.424654 -0.025219 0.614933 0.286785 0.302907 0.038765 0.248762 -0.019459 -0.304445 0.144273 -0.557425 0.173625 -0.153652 0.568574 -0.180729 0.032341 0.354606 0.042249 0.439664 -0.537311 0.094862 -0.001828 -0.486076 0.137295 0.288816 0.342458 -0.450642 0.325350 0.668171 0.073637 0.046179 0.451148 -0.038754 -0.158117 0.100454 0.130755 0.109027 0.149698 -0.357795 -0.707306 0.024231 -0.020724 -0.462953 -0.262505 -0.279263 0.141086 0.314071 0.468077 0.704311 0.025169 0.490200 -0.507431 0.602556 0.584998 -0.056471 0.052714 0.505652 0.443709 0.219271 -0.463732 -0.664110 -0.312653 0.241188 -0.191024 -0.052215 -0.270054 0.217716 0.881352 0.474753 -0.245644 0.518709 0.830500 0.293679 0.395541 -0.028844 0.082491 0.050245 0.726490 0.733717 0.001702 0.349665 -0.119578 0.700718 -0.858828 -0.069816 0.154538 -0.146029 
IN 0.277512 -0.001687 0.132642 0.207955 0.127379 0.014910 -0.142628 0.109177 -0.469624 0.380802 0.229049 0.305439 -0.117746 -0.059154 0.118069 0.473396 0.274385 -0.057373 0.320968 0.041489 0.286405 0.255365 0.477832 -0.243806 -0.132215 -0.193392 0.075230 0.180137 0.147008 0.016572 -0.180410 -0.192326 -0.499205 -0.048885 -0.023308 -0.364201 0.131381 0.118589 0.195631 0.006077 -0.247469 0.408649 -0.325355 -0.120479 0.587355 0.281605 0.062434 0.025184 -0.195774 0.191345 0.099369 -0.294522 -0.428300 0.182761 0.265520 -0.017374 0.254218 -0.208312 0.069183 -0.086744 0.134857 -0.037681 -0.130976 -0.410728 -0.202185 0.287537 0.266261 -0.088953 0.132001 0.152147 -0.053408 0.016857 -0.007940 -0.325622 -0.487936 -0.219449 -0.217748 -0.192681 -0.123848 -0.255026 0.177550 0.061448 0.185100 -0.234652 -0.060410 0.469377 -0.003182 -0.059312 0.040685 -0.040350 0.132949 0.486505 -0.168189 -0.023124 -0.031893 0.023928 -0.177023 0.275253 -0.122357 -0.166045 
SOLIDS 0.120957 0.029496 0.108363 -0.306404 0.078516 -0.169779 0.022419 0.053357 -0.121854 0.214548 -0.005726 0.246524 -0.137231 -0.061186 0.185447 0.146275 0.089278 0.174826 0.106073 -0.013455 0.012924 0.162808 0.258687 -0.308891 0.034247 -0.023267 -0.135509 0.079999 0.177624 0.067546 0.052629 0.144288 -0.286482 0.229481 -0.011823 0.076617 0.143455 0.144519 0.098219 -0.116936 0.026452 0.227356 -0.344446 -0.387528 0.301937 0.173158 -0.101353 -0.078516 0.117664 -0.076696 0.049923 -0.173881 0.083245 -0.022414 -0.121303 0.160631 0.378266 0.076407 -0.011618 -0.253457 0.371053 -0.318433 0.194562 -0.138648 -0.233669 0.231425 0.203801 -0.134459 0.318132 0.176265 0.101130 -0.067073 0.011887 -0.263166 -0.104869 0.079230 -0.315867 0.095494 -0.273778 -0.098293 0.041548 -0.141273 0.174138 -0.209202 -0.000872 0.090092 -0.051062 -0.198824 0.451586 0.234394 0.254586 0.412318 0.119844 0.406222 0.072342 -0.003026 0.109584 0.438233 0.011759 -0.119208 
OF 0.192587 0.050884 0.142374 0.020218 0.088096 -0.041232 -0.143105 -0.084398 -0.381264 0.363887 0.199887 0.186049 -0.159612 -0.003344 0.018366 0.397749 0.270188 -0.035701 0.266126 -0.039064 0.246084 0.294263 0.339430 -0.219361 -0.151844 -0.140625 0.139631 0.163159 0.059737 0.066564 -0.224991 -0.157999 -0.530200 0.026003 0.130357 -0.167186 0.117916 -0.055152 0.175917 0.035723 -0.236788 0.324911 -0.413429 -0.103455 0.672583 0.261316 0.079360 0.018093 -0.277853 0.071306 0.140925 -0.231267 -0.280137 0.142023 0.156891 0.000419 0.324220 -0.145113 0.020184 -0.154072 0.271326 -0.225315 -0.035255 -0.432905 -0.081970 0.395757 0.492147 -0.103243 0.182670 0.040815 -0.088962 0.007238 -0.031090 -0.382137 -0.323078 -0.058633 -0.263099 -0.128389 -0.215875 -0.284752 0.118375 0.058231 0.120523 -0.350053 -0.073907 0.493730 -0.036489 -0.036899 0.219232 -0.040987 0.207647 0.423140 -0.104766 0.113677 -0.016314 0.069910 -0.102890 0.353077 -0.102033 -0.190917 
ML 0.254039 -0.059777 0.265232 0.125855 0.270496 0.089559 -0.246070 -0.231650 -0.360572 0.386650 0.109103 0.159236 -0.246309 0.152151 -0.084436 0.321533 0.567323 -0.188837 0.440570 0.292163 0.102279 0.356226 0.501155 -0.171932 -0.137330 -0.394452 0.098171 0.389343 0.074080 -0.030939 -0.319071 -0.217180 -0.544409 -0.045640 0.168440 -0.018833 0.155924 -0.140550 0.182730 0.094198 -0.512547 0.158453 -0.493492 0.126827 0.762948 0.462098 0.179448 0.068197 -0.223365 0.118079 0.277001 -0.297581 -0.379762 0.227401 0.081040 -0.074300 0.415396 -0.120497 -0.238418 -0.183275 -0.038373 -0.342729 -0.042590 -0.688585 0.024735 0.219928 0.530125 -0.108990 0.198832 0.153407 -0.021253 -0.207239 0.104066 -0.321419 -0.265711 -0.319812 -0.284969 -0.286607 -0.123851 -0.507117 0.018474 0.273882 0.060349 -0.390953 -0.091309 0.809597 -0.114438 0.148910 0.155344 -0.292230 -0.120866 0.316500 -0.247848 -0.053666 0.131755 0.119434 -0.164174 0.321611 -0.292378 -0.017533 
UP 0.292996 -0.039174 0.256159 0.200391 0.233487 0.143529 -0.252201 -0.213777 -0.462476 0.397805 0.129990 0.273729 -0.221322 0.094804 -0.018384 0.372717 0.591927 -0.194628 0.416628 0.183911 0.165909 0.332795 0.547453 -0.195090 -0.193459 -0.327750 0.120906 0.308123 0.055597 -0.047383 -0.260107 -0.235849 -0.561960 -0.024179 0.135595 -0.116331 0.122112 -0.060171 0.245585 0.070769 -0.405347 0.259231 -0.470368 0.059060 0.807421 0.395278 0.176114 0.072681 -0.201573 0.118656 0.251205 -0.372268 -0.456926 0.209725 0.126523 -0.125608 0.410613 -0.172750 -0.129365 -0.144445 -0.017519 -0.184145 -0.073613 -0.626177 -0.039369 0.297698 0.485937 -0.128230 0.186778 0.174787 -0.013293 -0.106606 0.089964 -0.353524 -0.352160 -0.331957 -0.260050 -0.225273 -0.164366 -0.455870 0.113161 0.231321 0.130364 -0.296409 -0.076906 0.771088 -0.089572 0.084882 0.072441 -0.262499 -0.076647 0.367030 -0.286035 -0.086358 0.090379 0.078105 -0.226583 0.310125 -0.293020 -0.020536 
ALIMENTUM 0.010199 -0.087780 0.231024 -0.305896 0.069246 -0.140091 0.078255 -0.186934 0.137676 0.183208 -0.114281 -0.021159 0.030541 -0.044782 0.064559 -0.053764 0.154378 0.145476 0.117518 0.186264 -0.157579 -0.020798 0.039515 -0.204553 -0.037620 -0.040789 0.000868 -0.074300 0.167537 0.188763 -0.031598 0.172829 -0.222259 0.076025 0.031492 0.149606 0.193604 -0.061759 0.010290 -0.095534 0.081469 0.179838 -0.143752 -0.297412 0.147531 0.102398 -0.106691 0.014741 0.221908 -0.067527 0.091944 -0.145731 0.043972 -0.131192 -0.197752 -0.039929 0.133409 -0.116504 0.026031 -0.139720 0.274002 -0.021465 0.063245 0.057274 -0.200465 0.194477 0.203150 -0.026572 0.274702 0.252754 0.219428 -0.111728 0.078146 -0.380944 0.039198 -0.043200 -0.287045 0.114280 -0.309702 -0.050924 0.211528 0.010650 0.112619 0.097932 0.092117 0.109861 0.043411 -0.152817 0.336301 -0.042659 0.133336 0.211380 0.284184 0.375436 0.074981 0.165291 0.004159 0.237360 0.154968 0.050728 
24 0.077951 -0.202058 0.380502 -0.017801 0.311226 0.062152 -0.131216 -0.278447 -0.166393 0.462393 -0.017805 0.177987 -0.124081 0.056850 -0.041501 0.168104 0.550584 -0.013836 0.386043 0.455582 -0.089907 0.184484 0.489104 -0.229858 0.022634 -0.388622 0.022114 0.301307 0.172215 0.013150 -0.134399 -0.022437 -0.433514 0.080705 0.057050 0.092253 0.168416 -0.016722 0.168853 -0.018124 -0.352056 0.218642 -0.301935 -0.025212 0.536442 0.373949 0.076335 0.156550 0.146714 0.115413 0.266433 -0.382037 -0.274236 0.126829 -0.110682 -0.122485 0.310917 -0.042475 -0.233452 -0.184068 -0.037786 -0.220918 0.031898 -0.370025 -0.148269 0.134063 0.423344 -0.129196 0.261266 0.380147 0.184780 -0.241064 0.184798 -0.333831 -0.205836 -0.287610 -0.367300 -0.137637 -0.254767 -0.435928 0.166579 0.305754 0.029870 -0.093498 0.134653 0.631140 -0.076344 0.066263 0.215123 -0.265702 -0.070722 0.390035 -0.074346 0.107464 0.189737 0.163225 -0.265265 0.304468 -0.194777 0.208953 
SENSITIVE -0.073656 -0.221809 0.300464 -0.316089 0.196884 -0.127407 0.075071 -0.220655 0.092741 0.380375 -0.044033 0.076510 -0.017819 -0.086892 0.062431 -0.018612 0.263871 0.253580 0.229476 0.259329 -0.244654 0.092406 0.280731 -0.258959 0.068610 -0.042549 -0.111255 -0.043753 0.252363 0.189972 0.046922 0.273760 -0.186293 0.120341 -0.078284 0.191470 0.119303 0.037575 -0.054990 -0.089307 0.020947 0.228774 -0.152642 -0.395169 0.101414 0.114976 -0.080714 -0.056972 0.407693 -0.030222 0.055486 -0.182190 0.037467 -0.109954 -0.256697 -0.047082 0.179252 0.014856 0.072441 -0.198341 0.205310 -0.057212 0.177757 0.077621 -0.213690 0.161921 0.147369 -0.169414 0.370857 0.344577 0.222803 -0.156004 0.131742 -0.383331 -0.044956 -0.119100 -0.411750 0.176717 -0.318526 -0.157102 0.200644 -0.014038 0.111622 0.059946 0.206053 0.180055 0.075773 -0.149471 0.388171 -0.017381 0.116671 0.245592 0.197675 0.474837 0.112580 0.078034 -0.042757 0.371407 0.015952 0.147379 
FORMULA 0.104445 -0.079699 0.254351 -0.094309 0.165527 -0.037036 -0.084073 -0.169900 -0.185025 0.379914 0.064599 0.153460 -0.152166 0.005929 0.024437 0.213862 0.342153 0.019833 0.291586 0.187135 0.010635 0.200190 0.373369 -0.240878 -0.041316 -0.203901 0.040937 0.151429 0.158156 0.068218 -0.127599 0.005796 -0.399782 0.082611 0.063462 0.019919 0.156732 -0.045593 0.111371 -0.024943 -0.191438 0.260915 -0.329290 -0.164598 0.479912 0.260867 0.043307 0.027632 0.001286 0.031525 0.144111 -0.249795 -0.177751 0.065463 -0.045404 -0.031145 0.316445 -0.070448 -0.062172 -0.193154 0.180009 -0.207918 0.040005 -0.309574 -0.134921 0.277721 0.383797 -0.121835 0.279997 0.226140 0.069435 -0.108181 0.072766 -0.347034 -0.176685 -0.140888 -0.317565 -0.050739 -0.246251 -0.282148 0.129636 0.112768 0.095546 -0.183141 0.032562 0.441476 -0.017194 -0.035932 0.283954 -0.094392 0.097585 0.369312 -0.002319 0.216250 0.099499 0.104042 -0.102899 0.349524 -0.098193 -0.015684 
BOTTLE 0.243890 0.043633 0.126360 0.056685 0.112394 -0.050127 -0.150201 -0.007595 -0.404178 0.386903 0.183413 0.263326 -0.141359 -0.056595 0.110668 0.436759 0.257287 -0.006648 0.247525 -0.074229 0.269725 0.273855 0.373231 -0.245270 -0.151258 -0.122989 0.101820 0.135803 0.082407 0.058521 -0.189560 -0.134602 -0.519093 0.028556 0.073995 -0.202841 0.132137 0.049953 0.210429 -0.005028 -0.166844 0.365531 -0.394886 -0.131663 0.633826 0.256197 0.037621 -0.005993 -0.228015 0.099654 0.139918 -0.261092 -0.316710 0.146106 0.191972 0.006314 0.323475 -0.126918 0.031175 -0.122557 0.258086 -0.159861 -0.045684 -0.346182 -0.164640 0.359993 0.403362 -0.105726 0.136162 0.063090 -0.053543 0.045007 -0.076476 -0.337680 -0.381804 -0.052567 -0.230703 -0.102547 -0.187928 -0.208680 0.152808 -0.007590 0.141491 -0.297594 -0.063363 0.420662 -0.004318 -0.060221 0.149357 0.046777 0.238683 0.459202 -0.114438 0.099988 -0.059878 0.045803 -0.114103 0.339377 -0.102072 -0.207028 
CC 0.192987 -0.189586 0.394970 0.099545 0.386300 0.127713 -0.299446 -0.377266 -0.320447 0.568340 0.072797 0.202423 -0.246158 0.139537 -0.074363 0.291166 0.711283 -0.142707 0.479562 0.478456 -0.059412 0.314700 0.615425 -0.254572 -0.043828 -0.474404 0.049095 0.377836 0.124359 -0.014338 -0.226850 -0.063773 -0.556915 -0.008658 0.156322 0.052618 0.191989 -0.109458 0.148131 0.039486 -0.517932 0.174959 -0.455654 0.120581 0.727147 0.458485 0.176398 0.081527 -0.071994 0.143737 0.322712 -0.372425 -0.401972 0.199233 0.009814 -0.165376 0.424643 -0.061488 -0.254438 -0.175469 -0.128657 -0.288499 -0.011655 -0.617369 -0.016630 0.184989 0.536952 -0.157055 0.254681 0.269841 0.085746 -0.277489 0.176690 -0.342790 -0.197387 -0.378533 -0.333566 -0.202095 -0.128396 -0.524184 0.046448 0.355590 0.054266 -0.238599 0.030231 0.855153 -0.062545 0.168627 0.150396 -0.324350 -0.185844 0.314270 -0.228577 -0.016674 0.208290 0.130860 -0.253065 0.364643 -0.333587 0.141238 
15 0.142793 -0.192710 0.257265 -0.006874 0.400450 0.090716 -0.411242 -0.392114 -0.480233 0.727975 0.238415 0.051269 -0.281488 0.091449 -0.146434 0.470189 0.638367 -0.072717 0.328554 0.197440 0.024168 0.322720 0.493466 -0.248023 -0.001063 -0.240545 0.099731 0.323539 -0.154759 0.086170 -0.210805 0.046140 -0.501383 -0.046131 0.219109 0.127626 -0.022444 -0.145940 0.119195 0.146218 -0.539586 0.104500 -0.529580 0.182976 0.802811 0.354451 0.228401 -0.171064 -0.300112 0.121129 0.316814 -0.119605 -0.413109 0.238464 0.065058 -0.078850 0.366414 0.105289 -0.170261 -0.011092 0.021535 -0.321213 0.152104 -0.597325 0.315171 0.312977 0.774000 -0.271498 0.059778 -0.136317 -0.016595 -0.159648 -0.039079 -0.296676 -0.238245 -0.110950 -0.367508 -0.137486 0.026355 -0.323939 -0.180329 0.150569 -0.065453 -0.505765 -0.024705 0.641862 -0.077140 0.196077 0.203959 -0.139367 0.124848 0.166154 -0.317083 0.009595 -0.012750 0.169223 -0.127329 0.306576 -0.381354 0.004244 
PUMPED 0.179713 -0.092660 0.224132 0.071686 0.291269 0.086593 -0.290385 -0.282183 -0.408629 0.534269 0.196506 0.107713 -0.219556 0.036835 -0.071041 0.393362 0.513086 -0.082047 0.316352 0.168530 0.104294 0.295533 0.418655 -0.201169 -0.091505 -0.221939 0.135201 0.278710 -0.050528 0.042773 -0.235011 -0.089662 -0.503444 -0.025081 0.169944 -0.017270 0.071670 -0.124127 0.161791 0.102933 -0.421175 0.199940 -0.440898 0.112605 0.724021 0.327131 0.180962 -0.034395 -0.249213 0.114601 0.282684 -0.198642 -0.385911 0.197690 0.095630 -0.097186 0.342672 -0.021529 -0.128044 -0.067146 0.037222 -0.218324 0.010478 -0.525238 0.119009 0.294509 0.599323 -0.191637 0.103637 0.006112 -0.023789 -0.103969 -0.011027 -0.317876 -0.280370 -0.163874 -0.287238 -0.163825 -0.087773 -0.343636 -0.007252 0.167086 0.011247 -0.368252 -0.041051 0.630230 -0.083503 0.125647 0.141744 -0.162352 0.091268 0.234162 -0.236635 -0.023945 0.018990 0.159177 -0.180691 0.283712 -0.283461 -0.020035 
CAL 0.060900 -0.210695 0.370029 0.000039 0.305324 0.071163 -0.173328 -0.367424 -0.097747 0.426362 -0.011171 0.151092 -0.149160 0.100281 -0.060430 0.128495 0.544841 -0.051205 0.382128 0.459581 -0.180747 0.222284 0.507165 -0.202799 0.086255 -0.367183 0.005155 0.249827 0.191410 0.004968 -0.115997 0.038579 -0.332293 0.038260 0.058441 0.139329 0.130967 -0.079326 0.067833 -0.032558 -0.323531 0.136512 -0.306206 -0.002599 0.469477 0.269256 0.086016 0.066827 0.181160 0.056646 0.206170 -0.299972 -0.214659 0.073300 -0.140173 -0.152473 0.340147 -0.012098 -0.178573 -0.191245 -0.098452 -0.208627 0.052517 -0.325634 -0.052215 0.081409 0.351807 -0.135991 0.268860 0.352944 0.154441 -0.247605 0.182430 -0.260301 -0.058568 -0.321080 -0.328169 -0.070872 -0.137967 -0.391698 0.059846 0.272824 0.042674 -0.077221 0.106196 0.604466 0.001787 0.113473 0.168419 -0.258345 -0.142324 0.224060 -0.105680 0.092027 0.254871 0.096517 -0.179424 0.313698 -0.241405 0.229149 
SPITTING 0.213831 -0.161713 0.354457 0.130943 0.322033 0.159514 -0.275955 -0.316103 -0.409583 0.470616 0.088540 0.269273 -0.256016 0.143100 -0.058645 0.308771 0.685194 -0.184139 0.483941 0.360348 -0.008583 0.314563 0.609448 -0.235997 -0.139925 -0.453243 0.056968 0.350026 0.143032 -0.032209 -0.210959 -0.173602 -0.559159 -0.014586 0.143457 -0.030055 0.162518 -0.084462 0.190083 0.041460 -0.457265 0.248089 -0.388809 0.039831 0.705179 0.444353 0.202874 0.120877 -0.120094 0.144054 0.248325 -0.377857 -0.426328 0.207360 0.044967 -0.124064 0.407872 -0.104753 -0.240056 -0.179142 -0.078695 -0.229518 -0.024504 -0.636257 -0.103486 0.242210 0.484854 -0.148768 0.281428 0.298202 0.079653 -0.255360 0.173942 -0.349224 -0.252929 -0.383619 -0.308871 -0.226031 -0.186367 -0.521474 0.129315 0.323095 0.119380 -0.225017 -0.007837 0.813504 -0.087649 0.108610 0.126156 -0.367515 -0.168611 0.389195 -0.225161 -0.023031 0.171883 0.102119 -0.253490 0.321591 -0.291092 0.076159 
35 0.090731 -0.211373 0.381384 0.034852 0.350498 0.141241 -0.273853 -0.386852 -0.216660 0.503678 -0.005877 0.161672 -0.201959 0.116804 -0.088009 0.190294 0.614517 -0.100367 0.348114 0.448271 -0.161176 0.198645 0.504926 -0.227953 0.016530 -0.421494 0.015081 0.287619 0.105601 -0.019731 -0.128986 0.020132 -0.431425 0.037086 0.118284 0.109867 0.163730 -0.075131 0.100361 0.006096 -0.379683 0.137496 -0.291095 0.104499 0.509253 0.347407 0.140559 0.119728 0.006683 0.122193 0.269157 -0.320326 -0.287318 0.155232 -0.053615 -0.156322 0.313585 0.010484 -0.251042 -0.130625 -0.158655 -0.202302 0.030636 -0.442733 -0.033317 0.127720 0.458142 -0.118431 0.210890 0.259097 0.139683 -0.260050 0.164873 -0.243811 -0.091199 -0.290819 -0.279875 -0.123461 -0.123979 -0.406627 0.054395 0.320383 -0.005134 -0.106280 0.085706 0.660032 -0.051648 0.136611 0.124477 -0.304106 -0.173833 0.244152 -0.155440 0.018640 0.184880 0.162177 -0.247469 0.264471 -0.282374 0.213316 
AT 0.196830 -0.025471 0.223578 0.068783 0.186517 0.036323 -0.177121 -0.144706 -0.324318 0.437212 0.123128 0.232703 -0.209297 0.040496 0.043650 0.362197 0.437654 -0.023240 0.317569 0.138672 0.079654 0.300986 0.428108 -0.232455 -0.062462 -0.245031 0.037937 0.226693 0.115105 0.008036 -0.173622 -0.069126 -0.489645 0.087049 0.096355 -0.072509 0.184673 0.013294 0.173914 0.007374 -0.263998 0.294361 -0.446964 -0.070223 0.640368 0.316516 0.053739 0.026654 -0.114892 0.078363 0.152438 -0.312005 -0.300847 0.158813 0.057518 -0.068078 0.353254 -0.085776 -0.051600 -0.177734 0.109481 -0.243156 0.015969 -0.443204 -0.143657 0.291058 0.417796 -0.151193 0.249074 0.189967 -0.010927 -0.106977 0.015891 -0.379680 -0.291698 -0.183791 -0.332193 -0.136599 -0.193264 -0.395629 0.120873 0.155867 0.134211 -0.290724 0.001793 0.627463 0.003374 -0.004628 0.207420 -0.071267 0.095525 0.452986 -0.150772 0.141234 0.091002 0.068388 -0.150610 0.400440 -0.180266 -0.088532 
NIGHT 0.150107 -0.060994 0.201228 0.039071 0.206177 0.018828 -0.189226 -0.193074 -0.292600 0.405388 0.099188 0.213478 -0.184108 0.016257 0.021520 0.330415 0.412840 -0.026801 0.283258 0.118565 0.094663 0.263875 0.431579 -0.202441 -0.067540 -0.233024 0.037699 0.225973 0.095356 0.017907 -0.158715 -0.036173 -0.461572 0.047840 0.094932 -0.028677 0.144279 -0.010236 0.140407 0.008899 -0.274288 0.238995 -0.418022 -0.033572 0.576575 0.264446 0.058246 0.026973 -0.116354 0.057243 0.162320 -0.264911 -0.261210 0.147069 0.061151 -0.090045 0.334789 -0.048035 -0.070035 -0.142040 0.059601 -0.247846 -0.000085 -0.380834 -0.082584 0.239597 0.437471 -0.122251 0.169713 0.142639 0.010461 -0.099724 0.038605 -0.286309 -0.241181 -0.143288 -0.273599 -0.097104 -0.163236 -0.317672 0.082156 0.125789 0.090557 -0.230815 0.014518 0.547751 -0.014891 0.011935 0.161124 -0.097602 0.043768 0.353968 -0.138924 0.090333 0.098624 0.082210 -0.129650 0.339243 -0.196907 -0.055688 
G -0.165886 0.347007 0.340592 -0.795789 -0.366789 -0.535536 0.651531 0.168349 0.099474 0.393803 0.245463 0.017403 -0.323583 -0.091865 -0.092085 -0.023759 -0.547600 -0.037890 0.431326 -0.447374 0.524869 0.179761 0.266007 -0.080632 0.066355 -0.143348 0.405918 -0.077018 0.684270 -0.001197 -0.364119 -0.458983 -0.136522 0.521694 0.033956 -0.013923 0.056287 -0.529072 0.312458 -0.128668 0.390209 0.832921 -0.350097 -0.797534 0.484432 0.079868 0.116554 0.023712 0.061450 -0.327345 -0.247904 -0.187657 0.520661 -0.073495 -0.293108 0.319261 0.840837 -0.076721 0.080303 -0.795886 1.202490 -0.580322 -0.184485 -0.445408 -0.242103 0.928839 0.580075 -0.292034 0.702363 0.483929 -0.270025 0.312529 0.059711 -0.320944 -0.128061 0.013536 -0.313651 -0.146924 -1.006736 -0.477233 0.274437 -0.229060 0.065207 -0.666520 -0.462766 0.037823 -0.250677 -0.432369 0.974523 -0.097273 0.821241 0.826856 0.248929 0.688342 -0.012460 0.118614 0.305963 0.821329 0.031729 -0.349467 
FEEDING 0.170597 -0.103655 0.231902 0.025021 0.262021 0.055094 -0.236121 -0.254762 -0.323684 0.483915 0.121882 0.152079 -0.188356 0.043281 -0.042012 0.270828 0.435172 -0.043653 0.283121 0.185231 0.010196 0.255917 0.379005 -0.201103 -0.087668 -0.232244 0.052777 0.238013 0.016331 0.040210 -0.161826 -0.033401 -0.443714 -0.003841 0.155844 0.011258 0.104411 -0.063490 0.144735 0.058225 -0.311345 0.205418 -0.361659 -0.008637 0.572409 0.301579 0.112289 -0.002437 -0.152137 0.109292 0.235420 -0.208933 -0.278719 0.147444 0.032581 -0.065148 0.320196 -0.013222 -0.122763 -0.082102 0.042252 -0.189201 0.030657 -0.414044 0.025790 0.238665 0.445881 -0.169115 0.156486 0.087259 0.029295 -0.122183 0.066027 -0.296647 -0.215038 -0.174963 -0.269074 -0.092499 -0.129931 -0.320291 0.029006 0.152114 0.068020 -0.247247 -0.026157 0.526123 -0.064747 0.068453 0.160205 -0.158207 0.028729 0.232558 -0.122878 -0.005846 0.058182 0.123050 -0.133400 0.272980 -0.208556 0.043637 
10 0.094811 -0.067664 0.155489 -0.105113 0.242093 0.002973 -0.204506 -0.215519 -0.296088 0.466818 0.156206 0.075413 -0.184397 -0.010359 -0.037771 0.351806 0.384556 0.019532 0.203540 0.079738 0.055022 0.231374 0.308590 -0.242291 0.018193 -0.090793 0.085735 0.209731 -0.060081 0.071387 -0.148416 0.059776 -0.399781 0.078359 0.123004 0.116877 0.012023 -0.041669 0.165200 0.032615 -0.266952 0.168013 -0.457600 0.003555 0.639265 0.252980 0.085843 -0.112032 -0.113600 0.005664 0.220819 -0.134697 -0.234316 0.114819 -0.037177 -0.022658 0.326129 0.068184 -0.100751 -0.089600 0.191737 -0.284401 0.158658 -0.355299 0.096092 0.307404 0.597190 -0.203441 0.118037 -0.020454 0.056902 -0.061080 -0.072406 -0.306032 -0.218092 0.001049 -0.350793 -0.075404 -0.133096 -0.217112 -0.039511 0.057811 -0.019355 -0.387206 0.023240 0.422358 -0.067717 0.041162 0.308761 0.008055 0.246125 0.295104 -0.150312 0.195548 -0.004041 0.172506 -0.076989 0.305534 -0.195290 -0.070464 
NUTRAMIGEN 0.032886 -0.087870 0.259022 -0.232099 0.103890 -0.097603 0.016630 -0.214431 0.090082 0.241037 -0.103644 0.005279 -0.009169 -0.006630 0.005082 -0.053952 0.186742 0.067560 0.126003 0.189888 -0.172992 -0.031377 0.092320 -0.209030 -0.032967 -0.149312 -0.000239 -0.049037 0.170682 0.123918 -0.051004 0.149807 -0.221678 0.016551 0.057129 0.106813 0.159161 -0.057656 -0.003682 -0.064114 0.027818 0.179953 -0.067609 -0.215709 0.136845 0.093517 -0.035418 0.015339 0.137631 -0.018359 0.094191 -0.150960 -0.002134 -0.088990 -0.133989 -0.054703 0.109149 -0.113759 -0.026852 -0.093696 0.153144 0.014957 0.026062 -0.039961 -0.143911 0.198168 0.168068 -0.012619 0.209052 0.217845 0.200999 -0.119262 0.083396 -0.273367 0.042780 -0.100738 -0.168011 0.065462 -0.232354 -0.067022 0.143480 0.052426 0.075039 0.130193 0.039321 0.114109 0.007580 -0.082760 0.191147 -0.095306 0.060870 0.172378 0.208410 0.252357 0.053822 0.166907 -0.038276 0.181238 0.097933 0.060155 
MINUTES 0.252509 -0.058049 0.131409 -0.077675 0.323278 0.025320 -0.425019 -0.298855 -0.639295 0.791229 0.387180 -0.009438 -0.341703 0.049466 -0.129286 0.637117 0.575036 -0.075023 0.305238 -0.045172 0.224952 0.363954 0.395911 -0.271159 -0.097582 -0.088888 0.205513 0.321859 -0.279149 0.133974 -0.305607 -0.012103 -0.582595 -0.043273 0.316534 0.063334 -0.104462 -0.224663 0.212261 0.249216 -0.523085 0.183379 -0.687779 0.152645 1.003988 0.366573 0.271543 -0.316123 -0.573164 0.098182 0.363943 -0.027876 -0.422385 0.268633 0.193481 0.023506 0.409592 0.074905 -0.120255 0.030668 0.253188 -0.401873 0.128875 -0.711894 0.471675 0.487924 0.964999 -0.330503 -0.065392 -0.391260 -0.143176 -0.011063 -0.205046 -0.330913 -0.379129 0.026117 -0.375872 -0.157195 0.014485 -0.231255 -0.242068 0.024973 -0.077689 -0.775469 -0.169523 0.568436 -0.138165 0.152728 0.294061 -0.006757 0.354343 0.181123 -0.340499 0.020458 -0.188857 0.208210 -0.036090 0.328149 -0.364850 -0.202852 
ON 0.148080 0.004681 0.207578 -0.113167 0.092099 -0.108455 -0.068739 -0.102338 -0.265434 0.423351 0.140255 0.242571 -0.158731 -0.081230 0.112167 0.364259 0.258553 0.057305 0.272778 -0.001068 0.141605 0.231251 0.361510 -0.355563 -0.098420 -0.114617 0.104889 0.068349 0.172495 0.117174 -0.151487 -0.014079 -0.534146 0.130447 0.080026 -0.098441 0.180581 0.002527 0.192614 -0.092923 -0.071576 0.443961 -0.426762 -0.278264 0.622104 0.244336 -0.012724 -0.006782 -0.089747 0.015548 0.130533 -0.300981 -0.211982 0.045861 0.014822 -0.007356 0.373985 -0.139180 0.057116 -0.214067 0.407045 -0.181913 0.031284 -0.283438 -0.243954 0.483627 0.490851 -0.116172 0.310908 0.201862 0.060368 0.009338 -0.043619 -0.486470 -0.271067 -0.015083 -0.342607 -0.038058 -0.331002 -0.232659 0.236352 0.015959 0.147088 -0.229207 0.030368 0.417883 0.027877 -0.139173 0.342746 0.027803 0.314442 0.548797 0.035076 0.323582 0.017233 0.140939 -0.110790 0.434793 -0.014850 -0.188767 
SOME 0.094565 -0.002510 0.194637 -0.022707 0.068077 -0.049018 -0.079875 -0.131962 -0.228278 0.373822 0.136308 0.192125 -0.106644 -0.078773 0.032384 0.300577 0.235894 -0.001262 0.192510 0.005157 0.174640 0.138320 0.329404 -0.268124 -0.081935 -0.113147 0.145515 0.024282 0.096691 0.076608 -0.135059 -0.066577 -0.444826 0.031738 0.080884 -0.164271 0.129606 -0.016838 0.145713 -0.065444 -0.064479 0.377649 -0.260444 -0.114261 0.508644 0.174698 0.056429 0.037525 -0.129601 0.060541 0.113924 -0.279940 -0.224016 0.068183 0.100049 -0.081787 0.265089 -0.168871 0.047617 -0.096353 0.220923 -0.068927 -0.062187 -0.248710 -0.171884 0.403197 0.432805 -0.046255 0.143857 0.124853 -0.002022 0.049837 -0.035917 -0.322501 -0.198020 -0.019037 -0.154145 -0.030739 -0.237959 -0.165957 0.177604 0.049521 0.091731 -0.091171 0.025868 0.343729 0.033265 -0.049589 0.110679 -0.023115 0.239416 0.375229 -0.072211 0.113811 -0.051261 0.106117 -0.177681 0.269845 -0.065478 -0.113336 
MOM 0.138404 -0.065855 0.185433 0.014741 0.218484 0.040648 -0.160864 -0.146988 -0.315966 0.423634 0.138453 0.230660 -0.187961 -0.006192 0.025369 0.358756 0.410667 -0.001012 0.298869 0.114464 0.091838 0.294473 0.441759 -0.243685 -0.023538 -0.191176 0.052561 0.244452 0.087563 0.015037 -0.150021 -0.047255 -0.455888 0.092385 0.067630 -0.005420 0.094443 0.029720 0.175836 0.001814 -0.294062 0.242484 -0.437388 -0.049925 0.630480 0.295048 0.063914 -0.002648 -0.062018 0.058929 0.191659 -0.273797 -0.274763 0.152029 0.008769 -0.049508 0.377612 0.010348 -0.087718 -0.182161 0.135744 -0.264938 0.062525 -0.386574 -0.070005 0.266860 0.458096 -0.175378 0.201201 0.137508 0.016477 -0.087685 0.007594 -0.314339 -0.278380 -0.109386 -0.329774 -0.111314 -0.170636 -0.332204 0.069737 0.098487 0.076890 -0.335471 0.028233 0.547280 -0.039305 0.014007 0.243140 -0.036700 0.119022 0.391846 -0.166790 0.157447 0.067861 0.079150 -0.141996 0.358489 -0.214209 -0.054968 
WELL 0.155131 -0.029494 0.231764 0.005281 0.150638 -0.045518 -0.162391 -0.166288 -0.304080 0.401534 0.121863 0.276343 -0.133497 -0.034566 0.054532 0.360916 0.408889 -0.019385 0.299716 0.100359 0.101905 0.280870 0.461995 -0.319954 -0.074910 -0.165295 0.071717 0.128754 0.132966 0.041718 -0.152359 -0.056850 -0.537118 0.061766 0.077531 -0.113477 0.175804 -0.002189 0.143622 -0.060450 -0.185434 0.373123 -0.405486 -0.139402 0.612400 0.280774 0.066708 0.030210 -0.106369 0.054150 0.139221 -0.330535 -0.267884 0.071175 0.059606 -0.073615 0.342622 -0.139881 0.009807 -0.156431 0.160624 -0.161280 0.030092 -0.339827 -0.199405 0.403066 0.485554 -0.076439 0.222693 0.188277 0.044885 -0.062030 0.024586 -0.388472 -0.240006 -0.094130 -0.262823 -0.060093 -0.238611 -0.274005 0.151133 0.090218 0.112926 -0.169205 0.038704 0.511287 0.024071 -0.040767 0.183568 -0.052175 0.168979 0.440690 -0.115577 0.173430 0.033127 0.117725 -0.177991 0.387097 -0.134443 -0.094629 
ABOUT 0.098519 -0.076487 0.220780 -0.031243 0.207036 0.023506 -0.145256 -0.205231 -0.187391 0.372416 0.052603 0.114025 -0.146473 0.045800 -0.022524 0.193668 0.361091 -0.025122 0.262211 0.190355 -0.018404 0.183511 0.326029 -0.169032 -0.028635 -0.222937 0.021012 0.178293 0.088633 0.029743 -0.128598 -0.001681 -0.364619 0.051939 0.082724 0.059413 0.118951 -0.049844 0.090057 0.018256 -0.246932 0.165956 -0.296471 -0.039523 0.464110 0.231528 0.067803 0.025227 -0.035723 0.044338 0.178163 -0.222982 -0.192855 0.096343 -0.014958 -0.068023 0.264492 -0.017901 -0.094977 -0.140925 0.054989 -0.197233 0.032673 -0.329197 -0.031761 0.185710 0.349666 -0.125481 0.194139 0.138551 0.063350 -0.123108 0.072131 -0.267181 -0.157979 -0.159191 -0.265624 -0.077480 -0.164363 -0.299688 0.049595 0.145417 0.063809 -0.186194 0.001786 0.453984 -0.041894 0.025777 0.185540 -0.129890 0.015527 0.250346 -0.054763 0.122671 0.103798 0.079742 -0.104739 0.283492 -0.144816 0.039555 
ALSO 0.074712 0.009269 0.183218 -0.096017 0.101228 -0.057604 -0.044454 -0.132549 -0.151632 0.339819 0.083130 0.175594 -0.130906 -0.045878 0.046688 0.238642 0.227744 0.010783 0.240595 0.052370 0.071981 0.171485 0.289064 -0.242283 -0.015161 -0.149893 0.091912 0.086713 0.159805 0.052731 -0.137468 -0.030727 -0.380785 0.122609 0.078747 -0.001551 0.136513 -0.032963 0.148182 -0.065296 -0.082493 0.306582 -0.325092 -0.156558 0.488582 0.179423 0.008701 0.017392 -0.026848 -0.000234 0.112650 -0.238480 -0.129268 0.035881 -0.035786 -0.032128 0.336592 -0.059004 -0.023197 -0.199655 0.250042 -0.201406 0.015642 -0.238881 -0.152620 0.323807 0.391473 -0.093187 0.227736 0.175729 0.051849 -0.018301 -0.004119 -0.306438 -0.152208 -0.035858 -0.238677 -0.047640 -0.259253 -0.232728 0.136233 0.052007 0.080616 -0.200539 0.008823 0.340479 -0.007827 -0.069157 0.251696 -0.017113 0.203893 0.376071 -0.006950 0.236015 0.064013 0.102230 -0.088435 0.347664 -0.057075 -0.077963 
DAILY 0.139364 0.030977 0.107727 -0.093930 0.066137 -0.089210 -0.079600 -0.019630 -0.243900 0.271076 0.112174 0.166732 -0.158106 -0.048155 0.081436 0.284996 0.165377 0.047581 0.198177 -0.024167 0.098340 0.217358 0.280963 -0.236745 -0.075676 -0.085452 0.036716 0.101338 0.109377 0.081038 -0.113868 -0.017115 -0.394364 0.090903 0.046105 -0.079584 0.144613 -0.003024 0.114393 -0.042440 -0.109338 0.280112 -0.336139 -0.204345 0.435962 0.195921 -0.010915 -0.037456 -0.119481 0.014987 0.057998 -0.153459 -0.137824 0.057264 0.037408 0.057554 0.304958 -0.070482 0.025279 -0.181557 0.313150 -0.214742 0.079189 -0.257399 -0.147742 0.325743 0.351590 -0.085585 0.230041 0.087885 -0.007657 -0.018208 -0.036622 -0.331503 -0.207946 -0.005108 -0.276559 -0.036013 -0.195733 -0.171197 0.102697 -0.024141 0.108170 -0.263624 -0.021446 0.311268 0.008968 -0.102837 0.307606 0.058247 0.229546 0.381021 0.001488 0.251977 0.011568 0.066315 -0.012081 0.326984 -0.046351 -0.173314 
NOT 0.156855 -0.046073 0.248566 -0.049145 0.140914 -0.034086 -0.093527 -0.126321 -0.236510 0.395959 0.088128 0.216329 -0.158255 -0.021351 0.046025 0.274851 0.334766 -0.002911 0.311940 0.136243 0.069714 0.207138 0.406701 -0.287293 -0.075558 -0.229404 0.076168 0.147587 0.167484 0.052131 -0.156869 -0.054196 -0.455260 0.059137 0.065607 -0.077490 0.159276 -0.010151 0.157097 -0.037820 -0.168014 0.343891 -0.321970 -0.173007 0.545472 0.278124 0.046227 0.037826 -0.061179 0.072357 0.142581 -0.289706 -0.227299 0.083741 0.028710 -0.038641 0.348427 -0.126237 -0.048370 -0.184241 0.206899 -0.178374 0.003429 -0.351406 -0.181767 0.340564 0.402807 -0.090795 0.251564 0.226313 0.052160 -0.071956 0.050515 -0.356226 -0.226928 -0.141249 -0.268375 -0.088747 -0.250224 -0.285640 0.158434 0.089032 0.109782 -0.173733 -0.003612 0.441927 -0.023296 -0.056010 0.227339 -0.094966 0.146801 0.434667 -0.041446 0.159206 0.046872 0.106934 -0.125294 0.342036 -0.105474 -0.062583 
THE 0.143295 -0.080654 0.290372 -0.059162 0.233124 -0.010408 -0.115691 -0.202920 -0.222522 0.478791 0.059269 0.225599 -0.168777 0.000543 0.037648 0.284827 0.418221 0.025167 0.318257 0.193790 0.026352 0.240586 0.436307 -0.259143 -0.017474 -0.235371 0.042325 0.193792 0.160810 0.053274 -0.137049 -0.003157 -0.465956 0.119323 0.079785 0.027965 0.190701 0.003319 0.179286 -0.027411 -0.193888 0.303481 -0.428656 -0.133119 0.606391 0.299714 0.032627 0.021678 0.046650 0.039261 0.208839 -0.344570 -0.239262 0.083978 -0.038608 -0.089209 0.382268 -0.047707 -0.089151 -0.209548 0.155994 -0.211029 0.027980 -0.339685 -0.162900 0.277882 0.424628 -0.170746 0.278886 0.276928 0.078219 -0.101425 0.065239 -0.387841 -0.234701 -0.172690 -0.343845 -0.059059 -0.284451 -0.338947 0.159203 0.126422 0.127520 -0.201193 0.038395 0.534370 -0.017104 -0.039314 0.280221 -0.087011 0.105453 0.433148 -0.063174 0.202148 0.110864 0.118993 -0.133304 0.406481 -0.154595 -0.007527 
OR 0.199049 0.046213 0.124694 -0.002024 0.096547 0.009354 -0.084586 -0.037463 -0.315253 0.291236 0.137315 0.177767 -0.197419 0.046114 0.038930 0.303690 0.269552 -0.061130 0.267737 0.035353 0.194455 0.245544 0.332366 -0.161059 -0.114862 -0.159868 0.084646 0.201311 0.072965 0.017383 -0.166789 -0.164311 -0.391741 0.075439 0.099490 -0.066459 0.123571 -0.070024 0.188425 0.053105 -0.229013 0.228671 -0.410879 -0.084560 0.589209 0.282398 0.086489 -0.009975 -0.153085 0.042465 0.148135 -0.228625 -0.232126 0.123269 0.063828 0.020244 0.368147 -0.076473 -0.061138 -0.194599 0.210700 -0.247396 -0.028317 -0.444863 -0.039191 0.273110 0.384356 -0.163645 0.207516 0.091091 -0.060758 -0.028483 0.010217 -0.297144 -0.259905 -0.125268 -0.262729 -0.123437 -0.201259 -0.291959 0.082100 0.054583 0.135446 -0.358674 -0.123652 0.470388 -0.092286 -0.025494 0.238099 -0.052873 0.108660 0.326365 -0.125928 0.078377 0.047183 0.038022 -0.038134 0.323898 -0.143767 -0.127681 
FRUITS 0.028087 -0.004526 0.117373 -0.136533 0.004710 -0.185749 0.013963 0.025846 -0.209668 0.373142 0.210329 0.204356 -0.020667 -0.263325 0.163572 0.394689 0.041456 0.206477 0.117449 -0.129908 0.173231 0.106400 0.259411 -0.379939 -0.041289 0.092136 0.119820 -0.104813 0.134037 0.189530 -0.041463 0.073479 -0.422741 0.117582 -0.041786 -0.242247 0.121338 0.133400 0.146720 -0.169175 0.116188 0.508371 -0.249705 -0.362445 0.393273 0.076173 -0.074778 -0.060604 -0.039406 0.023075 0.000329 -0.177722 -0.164588 -0.017799 0.066535 0.014662 0.177299 -0.147205 0.245661 -0.075975 0.487565 0.013958 0.069725 0.030597 -0.319870 0.492934 0.393333 -0.074122 0.176140 0.132386 0.052988 0.138177 -0.168832 -0.434395 -0.295515 0.166404 -0.249961 0.062967 -0.293096 0.011652 0.285541 -0.115586 0.096370 -0.075302 0.164607 0.123366 0.124230 -0.229624 0.299331 0.222497 0.529361 0.536753 0.080235 0.387295 -0.145842 0.127870 -0.162279 0.339716 0.076712 -0.230894 
AR 0.145152 -0.067055 0.168643 -0.158927 0.063773 -0.080682 -0.031540 -0.059460 0.000376 0.266035 -0.007855 0.167009 -0.109597 -0.075448 0.125602 0.023687 0.144517 0.123942 0.219382 0.181859 -0.136174 0.025209 0.130806 -0.227407 -0.074211 -0.079184 -0.030904 -0.009330 0.228934 0.170987 0.041687 0.104800 -0.216933 0.095952 0.013874 -0.007255 0.255294 -0.090220 0.105723 -0.050786 0.071570 0.299452 -0.162892 -0.351241 0.187043 0.117494 -0.050200 -0.083318 0.100677 -0.008097 0.054884 -0.149282 -0.057895 -0.133952 -0.092502 0.025891 0.239182 -0.137673 0.071950 -0.133951 0.288943 0.020529 -0.006615 -0.038737 -0.260994 0.202079 0.130411 -0.135486 0.321858 0.245241 0.160548 -0.090262 0.064840 -0.369130 -0.096954 -0.133016 -0.264252 0.148050 -0.301550 -0.122141 0.227484 -0.002576 0.204376 0.062802 -0.015378 0.185960 0.049099 -0.217861 0.308490 -0.023660 0.168502 0.185107 0.192317 0.246158 0.087209 0.066957 -0.016586 0.335661 0.082564 0.008460 
EATS 0.030737 0.096852 0.082093 -0.254255 -0.062654 -0.226780 0.110095 0.046593 -0.098475 0.284304 0.147772 0.203066 -0.050188 -0.206089 0.169764 0.301405 -0.038494 0.193169 0.089239 -0.192435 0.196040 0.103193 0.156798 -0.337804 0.008379 0.103218 0.107498 -0.078846 0.163666 0.154302 -0.047778 0.053377 -0.372004 0.221293 0.002622 -0.094198 0.127208 0.087915 0.175737 -0.177179 0.182445 0.455465 -0.331408 -0.381849 0.423950 0.072191 -0.122769 -0.055006 0.014002 -0.075148 0.020976 -0.213260 -0.005619 -0.056088 -0.047303 0.049118 0.277990 -0.092153 0.172373 -0.199831 0.577691 -0.151845 0.078584 0.015394 -0.306516 0.488225 0.385728 -0.078270 0.242321 0.150862 0.045410 0.150998 -0.140713 -0.404712 -0.183865 0.221013 -0.263851 0.080725 -0.376397 -0.018999 0.252468 -0.139129 0.121318 -0.161628 0.098295 0.058336 0.064636 -0.249338 0.383264 0.263773 0.554760 0.546105 0.140558 0.446908 -0.067808 0.110614 -0.031679 0.389411 0.135602 -0.277660 
TAKING 0.099322 -0.024587 0.197534 -0.090677 0.102704 -0.059887 -0.051922 -0.103492 -0.184242 0.333063 0.077119 0.200846 -0.100457 -0.063841 0.072138 0.256654 0.255134 0.050741 0.239965 0.072801 0.080345 0.176604 0.312214 -0.258785 -0.057173 -0.114175 0.069445 0.085965 0.147856 0.080737 -0.110202 -0.015488 -0.418122 0.118392 0.037105 -0.056910 0.158749 0.007295 0.155650 -0.071078 -0.076407 0.342144 -0.329322 -0.203151 0.475745 0.214145 0.000768 0.036068 0.003698 0.013683 0.111363 -0.268331 -0.178274 0.027912 -0.014298 -0.022863 0.296235 -0.102391 0.025794 -0.176760 0.268042 -0.140301 0.032998 -0.203354 -0.220590 0.333838 0.380473 -0.095523 0.258935 0.224643 0.079338 -0.037163 0.015750 -0.394034 -0.210361 -0.068272 -0.305384 -0.029770 -0.292662 -0.216845 0.206523 0.056614 0.117128 -0.150691 0.062613 0.376123 0.009444 -0.112312 0.276097 -0.021358 0.211292 0.427582 0.018359 0.261646 0.043271 0.121622 -0.109353 0.335605 -0.028487 -0.082968 
FEED 0.171313 -0.111376 0.322234 -0.008870 0.267851 0.047808 -0.214417 -0.275136 -0.281211 0.535489 0.078192 0.211366 -0.210699 0.054932 -0.011236 0.288693 0.519004 -0.045532 0.347632 0.275663 -0.001657 0.233926 0.491374 -0.283580 -0.048882 -0.327618 0.049724 0.237051 0.130021 0.041865 -0.165012 -0.012601 -0.527886 0.054515 0.124807 0.016992 0.181504 -0.042743 0.157679 -0.005507 -0.296947 0.284423 -0.412756 -0.048548 0.654226 0.342731 0.095302 0.049735 -0.058033 0.088835 0.245768 -0.347476 -0.302891 0.136204 0.011661 -0.106883 0.377324 -0.063755 -0.131564 -0.174348 0.082598 -0.223306 0.006038 -0.441799 -0.103888 0.290332 0.491802 -0.158016 0.254184 0.233136 0.084215 -0.148625 0.098110 -0.371828 -0.227718 -0.225655 -0.338881 -0.100087 -0.231710 -0.376201 0.123556 0.220960 0.100514 -0.198603 0.022280 0.625670 -0.044816 0.035339 0.214126 -0.161226 0.024592 0.390525 -0.110676 0.122279 0.127993 0.134558 -0.185256 0.371506 -0.210447 0.040874 
9 0.031544 -0.070323 0.228400 -0.289631 0.092497 -0.143753 0.057209 -0.121224 0.031757 0.352607 -0.018648 0.158340 -0.034201 -0.101962 0.132061 0.070684 0.136015 0.166695 0.140331 0.122369 -0.100085 0.034658 0.203848 -0.305171 0.064817 -0.043684 -0.021477 -0.023810 0.199658 0.135943 0.039234 0.188777 -0.221127 0.187526 -0.009483 0.084713 0.135511 0.037982 0.103165 -0.138492 0.144358 0.301892 -0.233472 -0.356345 0.244945 0.098358 -0.077066 -0.058276 0.265609 -0.068893 0.089159 -0.195739 0.021023 -0.115726 -0.184735 0.014517 0.249120 -0.012567 0.046196 -0.162683 0.340995 -0.072375 0.111545 0.051246 -0.226097 0.247250 0.213804 -0.140657 0.283701 0.290813 0.212453 -0.027354 0.037434 -0.325846 -0.053262 -0.010137 -0.285184 0.145142 -0.326933 -0.045975 0.196437 -0.036547 0.114959 0.024329 0.114035 0.081951 0.021481 -0.183620 0.367322 0.082237 0.265068 0.315495 0.180915 0.372075 0.069753 0.122437 -0.017386 0.324849 0.069075 0.015709 
PLUS 0.041618 0.026438 0.122065 -0.197884 0.018630 -0.166136 0.025846 -0.027590 -0.080866 0.341069 0.102272 0.130604 -0.053724 -0.131450 0.115667 0.208291 0.055914 0.138204 0.109412 -0.083896 0.062535 0.060762 0.153088 -0.266662 0.010197 0.025825 0.034086 -0.041752 0.125590 0.135404 -0.016957 0.098813 -0.267231 0.143971 0.029360 -0.021832 0.087376 0.036514 0.101830 -0.099056 0.106509 0.327198 -0.234913 -0.287874 0.316536 0.050610 -0.043186 -0.083833 0.026282 -0.041357 0.063451 -0.150166 -0.026795 -0.048312 -0.029686 0.013427 0.191516 -0.028596 0.123473 -0.115670 0.369376 -0.092078 0.074258 -0.015368 -0.153305 0.331391 0.262912 -0.107608 0.172092 0.099110 0.071733 0.068830 -0.067159 -0.299385 -0.151583 0.094264 -0.193077 0.087160 -0.255849 -0.032336 0.164740 -0.086883 0.103254 -0.103553 0.055532 0.050854 0.017937 -0.171315 0.257195 0.141344 0.364362 0.323969 0.118864 0.308007 -0.031304 0.077972 -0.022400 0.300684 0.068717 -0.126935 
TAKES 0.095338 -0.119712 0.273547 -0.024762 0.240388 0.043794 -0.172147 -0.246781 -0.197908 0.405307 0.027602 0.164823 -0.176793 0.053292 -0.014107 0.216843 0.450389 -0.023334 0.327559 0.295160 -0.075003 0.226170 0.410365 -0.219363 -0.002929 -0.307185 0.010855 0.246732 0.131338 0.028129 -0.126030 0.007613 -0.422235 0.076630 0.091042 0.085016 0.152581 -0.038921 0.114397 -0.007737 -0.310886 0.185802 -0.336179 -0.037268 0.517346 0.305327 0.058669 0.062997 0.011231 0.077009 0.204736 -0.283204 -0.210419 0.123953 -0.061134 -0.072912 0.322901 -0.009762 -0.159986 -0.191747 0.038621 -0.261504 0.064871 -0.370476 -0.087943 0.171489 0.417581 -0.122585 0.259309 0.230976 0.093717 -0.196611 0.104819 -0.314156 -0.138684 -0.194771 -0.341905 -0.106961 -0.172065 -0.373021 0.078087 0.204974 0.053171 -0.211944 0.054373 0.561279 -0.026393 0.039725 0.234386 -0.166389 -0.023846 0.337653 -0.067535 0.154783 0.169333 0.108076 -0.141681 0.331780 -0.184471 0.079234 
STARTED 0.096161 0.016687 0.139910 -0.140907 0.019118 -0.121529 0.031284 0.014864 -0.159708 0.326804 0.118684 0.227862 -0.087402 -0.127350 0.137598 0.271165 0.087967 0.126910 0.145865 -0.041749 0.129007 0.097788 0.255459 -0.310368 -0.014806 -0.043811 0.066925 0.012944 0.161844 0.105443 -0.043619 0.025215 -0.347197 0.134122 0.004857 -0.133851 0.131007 0.087754 0.166226 -0.120399 0.078474 0.390279 -0.265945 -0.297874 0.382683 0.126086 -0.065446 -0.023873 0.012073 -0.002530 0.052706 -0.224160 -0.110993 0.005938 0.007983 0.032578 0.265426 -0.104855 0.073538 -0.153527 0.396579 -0.089723 0.027694 -0.096030 -0.268788 0.352123 0.293255 -0.104147 0.217849 0.196520 0.065470 0.069085 -0.066592 -0.329143 -0.209545 0.052774 -0.235464 0.025961 -0.282967 -0.068087 0.219878 -0.048300 0.122234 -0.108811 0.057306 0.156014 0.045106 -0.170008 0.299861 0.138873 0.349135 0.469480 0.059447 0.288749 -0.026232 0.098014 -0.064628 0.333831 0.038786 -0.168984 
JUICE 0.023139 -0.016313 0.156939 -0.163527 0.081940 -0.104436 0.019179 -0.085296 -0.075821 0.263310 0.053909 0.179708 -0.059323 -0.101116 0.085676 0.181898 0.153514 0.127408 0.181778 0.025255 0.012304 0.158327 0.254636 -0.256568 0.032765 -0.033576 0.026004 0.040396 0.170819 0.080221 -0.043357 0.087485 -0.284115 0.142819 -0.013473 0.021584 0.096326 0.067914 0.111470 -0.107280 0.002038 0.302360 -0.267818 -0.291948 0.346879 0.119756 -0.047743 -0.022542 0.143741 -0.043575 0.056105 -0.203247 -0.046622 -0.026416 -0.122531 0.004985 0.241849 -0.027249 0.057255 -0.192606 0.297025 -0.136408 0.131991 -0.049411 -0.211689 0.282797 0.277125 -0.125823 0.261198 0.220323 0.117481 -0.008857 -0.018347 -0.337236 -0.135107 0.013847 -0.301715 0.042715 -0.284301 -0.143648 0.163279 -0.022789 0.092547 -0.128596 0.107018 0.202440 0.028898 -0.137651 0.325305 0.088793 0.255373 0.394740 0.055480 0.355787 0.047926 0.089090 -0.050465 0.332859 0.006292 -0.067825 
FRUIT 0.134514 0.047244 0.037455 -0.080604 0.012571 -0.133950 0.028756 0.156052 -0.233904 0.293793 0.178789 0.275688 -0.080733 -0.180895 0.206477 0.373028 0.032776 0.175234 0.138028 -0.150750 0.196663 0.159550 0.267181 -0.312046 -0.019288 0.054063 0.036818 -0.003833 0.155278 0.119444 -0.022864 0.032686 -0.333349 0.137517 -0.052070 -0.201046 0.120397 0.172388 0.179020 -0.114955 0.072919 0.394503 -0.309374 -0.338310 0.387229 0.132030 -0.099090 -0.117773 -0.009913 0.004878 0.002155 -0.182337 -0.157198 0.011930 0.056634 0.071549 0.254184 -0.069092 0.174132 -0.137537 0.438757 -0.066967 0.065621 -0.051853 -0.275921 0.342122 0.217003 -0.134171 0.205828 0.121377 0.010702 0.116736 -0.152685 -0.348201 -0.313591 0.088177 -0.261934 0.029498 -0.219503 -0.023305 0.211502 -0.155508 0.171331 -0.207545 0.047192 0.128896 0.076438 -0.209805 0.316948 0.263949 0.409214 0.482076 0.026541 0.333656 -0.083157 0.031947 -0.035651 0.349968 0.034932 -0.253832 
MEALS 0.107300 0.048154 0.113815 -0.240650 -0.011710 -0.218561 0.027523 0.040118 -0.177067 0.318249 0.142493 0.184134 -0.093874 -0.144772 0.156495 0.295560 0.035241 0.183894 0.143041 -0.114298 0.120652 0.138492 0.213581 -0.347983 -0.063477 0.048785 0.041391 -0.028203 0.156095 0.169413 -0.048663 0.077947 -0.392565 0.147428 0.016521 -0.112823 0.140663 0.062782 0.121507 -0.106451 0.088966 0.412101 -0.319624 -0.407815 0.376666 0.124184 -0.072544 -0.095722 -0.039845 -0.026059 0.005219 -0.142895 -0.051100 -0.035539 0.006487 0.103234 0.247779 -0.107464 0.163676 -0.164296 0.519632 -0.130816 0.101073 -0.068202 -0.257499 0.442246 0.339619 -0.102386 0.250880 0.115230 0.050061 0.063090 -0.100736 -0.406106 -0.222154 0.125123 -0.291823 0.067854 -0.314890 -0.039295 0.200034 -0.137167 0.136339 -0.191903 0.024303 0.108624 0.047094 -0.237961 0.406983 0.200928 0.431894 0.462789 0.141590 0.414302 -0.080226 0.094569 0.006275 0.392634 0.097946 -0.240243 
TWICE 0.159729 0.013938 0.178915 -0.101583 0.068277 -0.098142 -0.062631 -0.033863 -0.256364 0.369883 0.125988 0.253453 -0.131847 -0.077993 0.118569 0.361519 0.203533 0.069708 0.199433 0.014741 0.120423 0.176413 0.323172 -0.344024 -0.063807 -0.121791 0.070386 0.084909 0.149517 0.101117 -0.103415 -0.006357 -0.487732 0.114788 0.066284 -0.135714 0.157938 0.074181 0.197994 -0.087818 -0.052555 0.411128 -0.348975 -0.249721 0.525199 0.220710 -0.028130 0.003685 -0.085260 0.036913 0.111351 -0.248978 -0.169088 0.060632 0.050252 0.028336 0.292101 -0.126040 0.037700 -0.160881 0.355991 -0.159031 0.039870 -0.252289 -0.235471 0.405695 0.407635 -0.083367 0.219153 0.171380 0.067285 0.010117 -0.045789 -0.379855 -0.244675 0.000765 -0.295778 -0.039717 -0.276885 -0.160144 0.186974 0.019124 0.132975 -0.199391 0.021598 0.302154 0.008224 -0.128772 0.296843 0.082442 0.283900 0.530019 0.026007 0.277252 -0.018527 0.120962 -0.090677 0.356089 -0.002640 -0.174877 
HAS 0.109303 -0.082695 0.254476 -0.076483 0.170194 -0.020991 -0.093083 -0.162103 -0.196571 0.387794 0.069503 0.219511 -0.129462 -0.025240 0.042947 0.255902 0.362951 0.031042 0.277022 0.176840 0.018519 0.191437 0.407331 -0.298346 -0.012460 -0.216236 0.044425 0.154077 0.156428 0.052334 -0.119920 0.012877 -0.428894 0.078731 0.058258 -0.006314 0.135231 0.024965 0.135051 -0.061281 -0.180053 0.294643 -0.325384 -0.140758 0.517942 0.251837 0.031201 0.038834 0.024088 0.048339 0.161350 -0.284157 -0.188652 0.074722 -0.030630 -0.051141 0.328384 -0.080805 -0.068804 -0.174962 0.166739 -0.189483 0.045048 -0.289985 -0.165536 0.289574 0.399526 -0.095967 0.225155 0.231481 0.090178 -0.101867 0.039825 -0.325023 -0.177294 -0.117233 -0.296368 -0.062827 -0.215500 -0.251778 0.134421 0.103022 0.081315 -0.145835 0.066785 0.411632 0.003690 -0.023217 0.237094 -0.054486 0.120556 0.409072 -0.049807 0.201541 0.064927 0.115378 -0.139512 0.345424 -0.120860 -0.019224 
BREASTMILK 0.048010 -0.064521 0.189507 -0.060234 0.139480 -0.016751 -0.075458 -0.154305 -0.112967 0.273176 0.044892 0.122575 -0.082146 -0.019840 0.022396 0.168940 0.251773 0.034798 0.212185 0.144128 -0.033413 0.152477 0.269907 -0.183089 0.020946 -0.126050 0.035923 0.104729 0.105611 0.051645 -0.078731 0.036778 -0.272398 0.084139 0.032426 0.045151 0.090878 -0.006288 0.098177 -0.044046 -0.118071 0.191231 -0.256141 -0.111810 0.350067 0.152869 0.011890 0.002298 0.063276 0.003287 0.103126 -0.175415 -0.122931 0.027570 -0.071377 -0.037979 0.224080 -0.022584 -0.029284 -0.135530 0.122860 -0.137124 0.074397 -0.156483 -0.092906 0.187950 0.299908 -0.091596 0.195148 0.180409 0.089604 -0.076365 0.025929 -0.262925 -0.114799 -0.086014 -0.255676 -0.026583 -0.175977 -0.196418 0.092446 0.084748 0.040017 -0.125862 0.076005 0.318842 0.008570 -0.027068 0.218767 -0.051713 0.092919 0.261631 -0.013441 0.196443 0.081987 0.096335 -0.088124 0.246945 -0.078602 0.014789 
SOY -0.008466 0.109188 0.000715 -0.211957 -0.159527 -0.214928 0.207890 0.165632 -0.036387 -0.045177 0.100738 0.169473 -0.010754 -0.163868 0.129747 0.237430 -0.132210 0.137959 0.116478 -0.133282 0.227494 0.169541 0.104027 -0.193990 -0.056599 0.112802 0.146718 -0.031950 0.207637 0.115824 -0.115510 -0.123256 -0.253899 0.196842 -0.054690 -0.121613 0.104869 0.016472 0.204085 -0.156944 0.145633 0.357627 -0.286258 -0.386703 0.290963 0.138137 -0.125253 0.007810 0.056245 -0.085650 -0.096458 -0.119000 0.088944 -0.034976 -0.122393 0.106073 0.288903 -0.154776 0.140735 -0.295290 0.552773 -0.192640 0.051924 -0.008309 -0.356181 0.376730 0.324563 -0.012706 0.277598 0.195268 -0.019417 0.082443 -0.112467 -0.394788 -0.125498 0.150238 -0.327331 -0.039264 -0.346468 -0.057695 0.266856 -0.173656 0.110949 -0.290493 0.026450 0.101384 0.083186 -0.252310 0.507539 0.152742 0.405451 0.526855 0.109668 0.464681 -0.062738 0.089194 0.035068 0.374806 0.107643 -0.239174 
DURING 0.087743 -0.102929 0.238530 -0.038237 0.195717 0.032242 -0.148933 -0.233119 -0.126762 0.363661 -0.002485 0.105075 -0.123661 0.056161 0.003420 0.147091 0.356937 -0.016258 0.212947 0.214891 -0.046669 0.138674 0.303366 -0.153526 -0.002440 -0.211896 -0.003599 0.141453 0.070721 0.025417 -0.073914 0.037795 -0.301259 0.050805 0.078662 0.068873 0.152196 -0.043346 0.081943 -0.000520 -0.157247 0.136636 -0.280282 0.005999 0.364118 0.211387 0.048999 0.040362 0.021400 0.034514 0.150604 -0.229855 -0.172242 0.065183 -0.041053 -0.102300 0.264496 -0.018338 -0.104125 -0.103349 0.012135 -0.122909 0.000909 -0.243396 -0.057292 0.127415 0.284368 -0.103887 0.183743 0.176498 0.068585 -0.113217 0.077807 -0.230428 -0.090004 -0.170823 -0.203026 -0.023537 -0.130444 -0.224255 0.066409 0.137864 0.071184 -0.075520 0.026447 0.423931 -0.014625 0.020411 0.136344 -0.136655 -0.028305 0.184420 -0.054961 0.086998 0.115328 0.111068 -0.108175 0.251620 -0.145602 0.067563 
